tree
version=v4
num_class=1
num_tree_per_iteration=1
label_index=0
max_feature_idx=2
objective=regression
feature_names=Recency Frequency Monetary
feature_infos=[0:648] [1:309] [2.9500000000000002:484615.09999999998]
tree_sizes=2603 2748 2735 2760 2769 2763 2756 2754 2747 2760 2756 2763 2765 2756 2758 2763 2760 2769 2760 2751 2774 2761 2746 2757 2768 2761 2747 2771 2755 2765 2757 2766 2763 2778 2762 2783 2771 2764 2765 2767 2768 2774 2771 2768 2762 2792 2760 2773 2776 2765 2792 2785 2772 2749 2794 2767 2790 2771 2783 2763 2770 2788 2769 2773 2764 2770 2771 2774 2763 2777 2773 2772 2768 2776 2762 2777 2780 2773 2784 2782 2779 2780 2779 2762 2778 2790 2777 2791 2764 2810 2760 2778 2798 2802 2800 2778 2753 2778 2758 2776 2778 2771 2764 2783 2794 2788 2776 2793 2780 2779 2770 2779 2777 2794 2790 2765 2801 2751 2760 2785 2802 2779 2762 2776 2785 2801 2797 2791 2789 2768 2799 2774 2778 2789 2797 2817 2788 2772 2796 2792 2791 2794 2787 2785 2758 2809 2777 2818 2794 2782 2796 2803 2772 2769 2808 2789 2794 2799 2809 2801 2807 2795 2804 2802 2772 2774 2799 2792 2788 2780 2803 2790 2815 2795 2805 2813 2805 2788 2830 2803 2805 2774 2801 2787 2774 2810 2780 2842 2789 2790 2778 2784 2780 2787 2832 2781 2790 2820 2813 2777 2793 2796 2806 2801 2804 2800 2797 2808 2810 2791 2838 2816 2814 2812 2796 2793 2811 2793 2794 2774 2790 2814 2807 2810 2799 2797 2800 2787 2794 2792 2782 2812 2786 2822 2797 2809 2787 2808 2811 2788 2791 2835 2820 2811 2789 2804 2781 2781 2773 2803 2813 2794 2823 2785 2813 2818 2784 2763 2780 2774 2789 2791 2827 2773 2782 2800 2803 2769 2830 2779 2779 2793 2772 2766 2781 2785 2777 2775 2796 2781 2776 2799 2813 2787 2801 2792 2779 2789 2799 2804 2800 2788 2809 2791 2805 2789 2823 2800 2820 2782 2817 2809 2816 2807 2819 2802 2821 2782 2805 2806 2832 2804 2831 2801 2785 2794 2797 2806 2793 2795 2813 2797 2808 2799 2840 2786 2766 2788 2814 2796 2804 2810 2795 2800 2826 2820 2811 2821 2800 2768 2794 2795 2774 2769 2819 2785 2777 2821 2831 2806 2787 2816 2813 2801 2815 2801 2802 2783 2829 2818 2806 2793 2819 2821 2797 2788 2786 2820 2789 2780 2824 2789 2774 2789 2810 2791 2808 2797 2830 2802 2846 2815 2783 2781 2812 2786 2837 2803 2786 2811 2785 2787 2808 2791 2773 2803 2809 2821 2809 2800 2799 2773 2800 2805 2801 2815 2820 2791 2803 2804 2834 2819 2796 2821 2843 2795 2791 2840 2832 2821 2806 2828 2829 2802 2822 2802 2781 2812 2798 2796 2804 2817 2848 2827 2800 2840 2808 2815 2793 2826 2861 2828 2815 2786 2807 2832 2783 2813 2820 2816 2804 2815 2809 2820 2812 2806 2824 2806 2826 2791 2809 2814 2807 2800 2786 2799 2831 2809 2794 2790 2800 2806 2804 2798 2808 2782 2765 2784 2798 2787 2779 2798 2786 2810 2802 2772 2817 2809 2774 2805 2816 2779 2794 2779 2782 2793 2796 2784 2786 2796

Tree=0
num_leaves=31
num_cat=0
split_feature=2 0 0 2 2 0 2 0 1 0 1 2 2 2 0 0 0 2 0 2 0 0 1 0 0 2 2 2 0 1
split_gain=8457.64 2115.39 1293.1 637.824 635.2 375.812 218.805 203.594 187.995 171.214 147.069 121.331 100.885 89.0347 78.1616 77.0516 94.1364 76.7762 80.5514 61.7048 61.1174 47.1268 48.3692 51.1862 58.2199 47.0603 46.4835 44.877 57.0896 42.4824
threshold=2102.4400000000001 120.50000000000001 116.50000000000001 497.56500000000005 5986.5800000000008 374.50000000000006 207.17000000000004 360.50000000000006 7.5000000000000009 370.50000000000006 38.500000000000007 1684.0450000000003 1146.3100000000002 1488.3950000000002 59.500000000000007 101.50000000000001 31.500000000000004 193.40000000000003 345.50000000000006 3496.2250000000008 23.500000000000004 204.50000000000003 10.500000000000002 287.50000000000006 325.50000000000006 4198.8450000000003 3002.9255000000007 156.15500000000003 67.500000000000014 5.5000000000000009
decision_type=2 2 2 2 2 2 2 2 2 2 2 2 2 2 2 2 2 2 2 2 2 2 2 2 2 2 2 2 2 2
left_child=1 6 4 9 8 21 27 11 -2 17 20 -5 14 -14 -8 16 -15 -3 -19 -10 -6 25 23 29 -25 26 -4 28 -1 -23
right_child=2 3 5 7 10 -7 12 -9 19 -11 -12 -13 13 15 -16 -17 -18 18 -20 -21 -22 22 -24 24 -26 -27 -28 -29 -30 -31
leaf_value=2.747339796289737 2.8063292579385766 2.6283409792793262 2.8088385447408215 2.6949680972324046 2.9494603394274495 2.6013863629463949 2.7598162462556597 2.6447684684913888 2.8463412741932905 2.6152320479771434 3.0245870298508444 2.7548862473736029 2.8113633233291639 2.7908830970697762 2.7230384994665329 2.8382436486843861 2.7117242645104493 2.657949617618943 2.7306211439562049 2.8881884616488063 2.8995897452431172 2.6825428806471101 2.6865673895135069 2.8704860598210136 2.7538424477471981 2.8481648923029024 2.7264284659644744 2.6357578875250414 2.6524748952380044 2.7832297069195544
leaf_weight=35 177 214 44 655 127 36 335 190 160 541 44 97 127 63 254 25 93 414 42 196 119 22 22 20 23 34 28 38 29 20
leaf_count=35 177 214 44 655 127 36 335 190 160 541 44 97 127 63 254 25 93 414 42 196 119 22 22 20 23 34 28 38 29 20
internal_value=2.72932 2.68806 2.85064 2.66016 2.88084 2.7508 2.74819 2.69101 2.84844 2.63615 2.94039 2.7027 2.75608 2.77927 2.74396 2.75675 2.74369 2.65305 2.66464 2.86938 2.92534 2.77605 2.75265 2.76975 2.8081 2.79968 2.77679 2.6788 2.70435 2.73049
internal_weight=4224 3152 1072 2153 823 249 999 942 533 1211 290 752 897 308 589 181 156 670 456 356 246 213 107 85 43 106 72 102 64 42
internal_count=4224 3152 1072 2153 823 249 999 942 533 1211 290 752 897 308 589 181 156 670 456 356 246 213 107 85 43 106 72 102 64 42
is_linear=0
shrinkage=1


Tree=1
num_leaves=31
num_cat=0
split_feature=2 0 0 2 2 0 2 0 1 0 1 2 2 0 2 0 2 0 0 2 0 0 1 0 0 2 0 1 2 2
split_gain=7633.02 1909.14 1167.03 575.636 573.268 339.17 197.837 183.743 169.666 154.521 132.729 109.791 88.5448 72.6007 69.2905 72.6977 64.9478 69.5391 84.9581 55.6886 55.1584 42.5319 43.6532 46.1955 52.5434 42.4719 42.0197 69.0187 71.3421 41.9514
threshold=2102.4400000000001 120.50000000000001 116.50000000000001 497.56500000000005 5986.5800000000008 374.50000000000006 216.09000000000003 360.50000000000006 7.5000000000000009 370.50000000000006 38.500000000000007 1655.0900000000004 1094.5900000000004 65.500000000000014 193.40000000000003 345.50000000000006 1488.3950000000002 101.50000000000001 31.500000000000004 3496.2250000000008 23.500000000000004 204.50000000000003 10.500000000000002 287.50000000000006 325.50000000000006 4198.8450000000003 75.500000000000014 4.5000000000000009 2353.3250000000003 3002.9255000000007
decision_type=2 2 2 2 2 2 2 2 2 2 2 2 2 2 2 2 2 2 2 2 2 2 2 2 2 2 2 2 2 2
left_child=1 6 4 9 8 21 -1 11 26 14 20 -5 13 -8 -3 -16 -14 18 -18 -10 -6 25 23 -23 -25 29 27 -2 -29 -4
right_child=2 3 5 7 10 -7 12 -9 19 -11 -12 -13 16 -15 15 -17 17 -19 -20 -21 -22 22 -24 24 -26 -27 -28 28 -30 -31
leaf_value=-0.044688792207411364 -0.0063243727530202564 -0.095929138919460449 0.075543545592914929 -0.033029930538068249 0.2091342473593284 -0.12153602242469788 0.028051850520579864 -0.08032302505091618 0.11117113806307316 -0.10838262155624503 0.28050460246476261 0.021872607548281832 0.070472485226708542 -0.0090384274721145626 -0.067800936333223247 0.0012370180516015916 0.058485873918684705 0.10347839450836183 -0.016715019492692846 0.15092597351390491 0.16175719351828599 0.0011114730721428281 -0.040614045750011096 0.13410868465900422 0.023297260118567427 0.11290357551153969 0.11488416300879585 0.0015791467998338784 0.1017848620047936 -0.0027460294110434398
leaf_weight=112 31 214 44 646 127 36 339 190 160 541 44 106 151 216 414 42 63 25 93 196 119 42 22 20 23 34 45 23 78 28
leaf_count=112 31 214 44 646 127 36 339 190 160 541 44 106 151 216 414 42 63 25 93 196 119 42 22 20 23 34 45 23 78 28
internal_value=1.89492e-09 -0.0391977 0.115253 -0.0657044 0.143948 0.0204082 0.0179285 -0.0363909 0.113167 -0.0885066 0.200522 -0.025291 0.0258351 0.0136167 -0.0724574 -0.0614422 0.0462603 0.0260612 0.0136546 0.133059 0.186216 0.0443987 0.0221606 0.0384081 0.0748375 0.0668467 0.0731597 0.0589355 0.0789657 0.0450976
internal_weight=4224 3152 1072 2153 823 249 999 942 533 1211 290 752 887 555 670 456 332 181 156 356 246 213 107 85 43 106 177 132 101 72
internal_count=4224 3152 1072 2153 823 249 999 942 533 1211 290 752 887 555 670 456 332 181 156 356 246 213 107 85 43 106 177 132 101 72
is_linear=0
shrinkage=0.05


Tree=2
num_leaves=31
num_cat=0
split_feature=2 0 0 2 2 0 2 0 1 0 1 2 2 2 0 0 0 2 0 2 0 2 0 0 2 0 1 1 0 0
split_gain=6888.8 1723 1053.24 519.512 517.374 306.101 179.16 165.828 153.123 139.455 119.788 99.4661 83.2367 73.6226 64.4807 62.759 76.6747 62.5347 65.6096 50.2589 49.7805 40.5015 51.5234 39.6163 57.3825 38.3851 41.5785 39.397 41.6915 47.4204
threshold=2102.4400000000001 120.50000000000001 116.50000000000001 497.56500000000005 5986.5800000000008 374.50000000000006 207.17000000000004 360.50000000000006 7.5000000000000009 370.50000000000006 38.500000000000007 1598.8950000000002 1146.3100000000002 1488.3950000000002 59.500000000000007 101.50000000000001 31.500000000000004 193.40000000000003 345.50000000000006 3496.2250000000008 23.500000000000004 156.15500000000003 67.500000000000014 43.500000000000007 2394.2950000000005 204.50000000000003 8.5000000000000018 10.500000000000002 287.50000000000006 325.50000000000006
decision_type=2 2 2 2 2 2 2 2 2 2 2 2 2 2 2 2 2 2 2 2 2 2 2 2 2 2 2 2 2 2
left_child=1 6 4 9 8 25 21 11 23 17 20 -5 14 -14 -8 16 -15 -3 -19 -10 -6 22 -1 24 -2 26 -4 28 -27 -30
right_child=2 3 5 7 10 -7 12 -9 19 -11 -12 -13 13 15 -16 -17 -18 18 -20 -21 -22 -23 -24 -25 -26 27 -28 -29 29 -31
leaf_value=0.01935417447771345 -0.026265168190002443 -0.091132681684516312 0.037633226882843748 -0.031989462080923764 0.1986775390745148 -0.11545922160148621 0.0275634633071387 -0.07630687625784624 0.10561258524656297 -0.10296349828432756 0.26647936755960638 0.01749957969858627 0.074418466957652668 0.055561574678572402 -0.0058409168729631929 0.098304472446441651 -0.01587926700551023 -0.064410886470822312 0.0011751613446644375 0.14337966794870338 0.15366932494299754 -0.086648631880157867 -0.070767483629029376 0.093290617689490318 0.068291202319018987 0.0010558977013542541 0.1014085661533267 -0.038583350723439998 0.12740324974060058 0.022132394624793012
leaf_weight=35 21 214 63 631 127 36 335 190 160 541 44 121 127 63 254 25 93 414 42 196 119 38 29 88 68 42 43 22 20 23
leaf_count=35 21 214 63 631 127 36 335 190 160 541 44 121 127 63 254 25 93 414 42 196 119 38 29 88 68 42 43 22 20 23
internal_value=-6.0386e-10 -0.0372378 0.10949 -0.0624192 0.136751 0.0193878 0.0170321 -0.0345713 0.107509 -0.0840813 0.190496 -0.0240265 0.0241723 0.0452349 0.0131582 0.0247581 0.0129718 -0.0688345 -0.0583701 0.126406 0.176905 -0.0457599 -0.0214822 0.0695017 0.0459801 0.0421788 0.0635044 0.0210526 0.0364877 0.0710956
internal_weight=4224 3152 1072 2153 823 249 999 942 533 1211 290 752 897 308 589 181 156 670 456 356 246 102 64 177 89 213 106 107 85 43
internal_count=4224 3152 1072 2153 823 249 999 942 533 1211 290 752 897 308 589 181 156 670 456 356 246 102 64 177 89 213 106 107 85 43
is_linear=0
shrinkage=0.05


Tree=3
num_leaves=31
num_cat=0
split_feature=2 0 0 2 2 0 2 0 1 0 1 2 1 2 2 0 0 0 0 2 2 0 2 0 0 0 2 0 2 0
split_gain=6217.14 1555.01 950.551 469.136 466.93 276.256 161.809 150.164 138.194 112.618 108.109 102.049 72.9759 72.8179 66.4444 64.0824 62.8511 56.64 69.1989 51.1462 45.3586 44.9269 38.6141 73.2106 58.0612 57.7124 42.9404 35.7537 51.7877 35.6982
threshold=2102.4400000000001 120.50000000000001 116.50000000000001 450.01000000000005 5986.5800000000008 374.50000000000006 216.09000000000003 360.50000000000006 7.5000000000000009 370.50000000000006 38.500000000000007 1279.6250000000002 4.5000000000000009 1146.3100000000002 1488.3950000000002 59.500000000000007 275.50000000000006 101.50000000000001 31.500000000000004 193.40000000000003 3496.2250000000008 23.500000000000004 419.55500000000006 110.50000000000001 97.500000000000014 84.500000000000014 803.30000000000007 43.500000000000007 2394.2950000000005 346.50000000000006
decision_type=2 2 2 2 2 2 2 2 2 2 2 2 2 2 2 2 2 2 2 2 2 2 2 2 2 2 2 2 2 2
left_child=1 6 4 9 8 -4 -1 11 27 19 21 29 -13 15 -15 -8 -14 18 -16 -3 -10 -6 -17 24 25 -24 -27 28 -2 -5
right_child=2 3 5 7 10 -7 13 -9 20 -11 -12 12 16 14 17 22 -18 -19 -20 -21 -22 -23 23 -25 -26 26 -28 -29 -30 -31
leaf_value=-0.040448956351195067 -0.024951910972595217 -0.086576049350132467 0.040069864949150269 -0.038152056175395715 0.18874366208324284 -0.10968626141548157 0.027433462618145998 -0.072298362192053059 0.10033195767551661 -0.098282118892396686 0.25315541489557786 -0.025942966961624597 0.055982967696072139 0.070697540150383334 0.052783497553023084 -0.040744270457596078 -0.026782318204641345 0.093389255523681644 -0.015085309295244115 -0.056369407357547086 0.13621068368760908 0.14598585712809523 -0.013872750220673809 0.093025992597852436 -0.062292191055085926 0.10782198054449899 0.0089311604914457908 0.088626090115444228 0.06487664269173847 0.019701098970004494
leaf_weight=112 21 214 213 559 127 36 328 208 160 524 44 101 81 127 63 61 32 25 93 406 196 119 89 21 36 21 23 88 68 28
leaf_count=112 21 214 213 559 127 36 328 208 160 524 44 101 81 127 63 61 32 25 93 406 196 119 89 21 36 21 23 88 68 28
internal_value=8.03971e-10 -0.0353759 0.104016 -0.0592983 0.129913 0.0184184 0.0161804 -0.0344461 0.102133 -0.0812177 0.180971 -0.0246168 0.00494087 0.0233309 0.0429732 0.0128822 0.032545 0.0235202 0.0123232 -0.0667956 0.120085 0.16806 -0.00613295 0.00497911 -0.00596163 0.00928574 0.0561291 0.0660267 0.0436811 -0.0353925
internal_weight=4224 3152 1072 2153 823 249 999 1009 533 1144 290 801 214 887 308 579 113 181 156 620 356 246 251 190 169 133 44 177 89 587
internal_count=4224 3152 1072 2153 823 249 999 1009 533 1144 290 801 214 887 308 579 113 181 156 620 356 246 251 190 169 133 44 177 89 587
is_linear=0
shrinkage=0.05


Tree=4
num_leaves=31
num_cat=0
split_feature=2 0 0 2 2 0 2 0 1 0 1 2 2 2 2 0 0 0 0 2 0 0 0 0 0 2 0 2 2 0
split_gain=5610.97 1403.39 857.872 424.614 421.405 249.321 146.706 135.45 127.171 113.368 97.5684 83.8732 74.2401 67.6743 59.9661 56.9429 52.3774 51.1176 62.452 50.6965 58.9251 40.5465 38.6512 62.6607 50.1212 38.5595 42.8631 37.4202 36.5526 46.4999
threshold=2102.4400000000001 120.50000000000001 116.50000000000001 497.56500000000005 5986.5800000000008 374.50000000000006 207.17000000000004 360.50000000000006 6.5000000000000009 370.50000000000006 38.500000000000007 1684.0450000000003 3496.2250000000008 1146.3100000000002 1488.3950000000002 24.500000000000004 59.500000000000007 101.50000000000001 31.500000000000004 193.40000000000003 345.50000000000006 23.500000000000004 211.50000000000003 192.50000000000003 222.50000000000003 313.53000000000003 151.50000000000003 764.36000000000013 156.15500000000003 67.500000000000014
decision_type=2 2 2 2 2 2 2 2 2 2 2 2 2 2 2 2 2 2 2 2 2 2 2 2 2 2 2 2 2 2
left_child=1 6 4 9 8 -4 28 11 15 19 21 22 -10 16 -15 -2 -8 18 -16 -3 25 -6 23 -5 -24 -21 -27 -9 29 -1
right_child=2 3 5 7 10 -7 13 27 12 -11 -12 -13 -14 14 17 -17 -18 -19 -20 20 -22 -23 24 -25 -26 26 -28 -29 -30 -31
leaf_value=0.020408914429800851 -0.0027560451451469872 -0.082247249935274935 0.038066371253958335 -0.022168048222859702 0.17930648251781314 -0.1042019546031952 0.024884537373905752 -0.044214433782240929 0.088292449735330819 -0.092942034129514725 0.24049763273109093 0.021764914030881273 0.13082170620770522 0.067162663718377522 0.050144323091658338 0.073432333564216454 -0.0052219598312077562 0.088719792842864992 -0.014331038023835868 -0.042301949216769295 0.0036821626481555758 0.13868657019959779 -0.10524941682815553 0.052780673720619897 -0.032361807926095651 -0.016252316277602624 -0.081513994367499107 -0.08884122689565023 -0.080293763154431402 -0.06520665678484687
leaf_weight=35 34 214 213 180 127 36 335 85 198 541 44 97 213 127 63 88 254 25 93 195 42 119 25 33 417 29 190 105 38 29
leaf_count=35 34 214 213 180 127 36 335 85 198 541 44 97 213 127 63 88 254 25 93 195 42 119 25 33 417 29 190 105 38 29
internal_value=2.27539e-10 -0.0336071 0.098815 -0.0563334 0.123418 0.0174975 0.0153714 -0.0311571 0.0970268 -0.0759172 0.171922 -0.0216269 0.110333 0.0218327 0.0408245 0.0521995 0.0119014 0.0223442 0.0117071 -0.0621703 -0.0527483 0.159657 -0.0280528 -0.0105563 -0.0364844 -0.0584731 -0.072872 -0.0688766 -0.0414495 -0.0183856
internal_weight=4224 3152 1072 2153 823 249 999 942 533 1211 290 752 411 897 308 122 589 181 156 670 456 246 655 213 442 414 219 190 102 64
internal_count=4224 3152 1072 2153 823 249 999 942 533 1211 290 752 411 897 308 122 589 181 156 670 456 246 655 213 442 414 219 190 102 64
is_linear=0
shrinkage=0.05


Tree=5
num_leaves=31
num_cat=0
split_feature=2 0 0 2 2 0 2 0 1 0 2 2 2 1 0 2 0 1 1 0 2 0 0 2 2 2 0 2 0 2
split_gain=5067.36 1409.22 682.15 393.218 326.818 192.526 156.755 133.609 112.387 96.4545 86.1239 77.6552 74.6359 74.1815 60.069 58.2676 46.2734 43.0218 48.3707 48.1813 41.421 55.5824 41.4175 52.14 61.7022 40.2475 44.5751 36.5109 35.2593 76.3685
threshold=2312.9250000000006 126.50000000000001 113.50000000000001 497.56500000000005 5986.5800000000008 372.50000000000006 845.07500000000016 360.50000000000006 6.5000000000000009 370.50000000000006 16807.575000000004 1279.6250000000002 200.18000000000004 4.5000000000000009 275.50000000000006 3496.2250000000008 332.50000000000006 11.500000000000002 8.5000000000000018 296.50000000000006 189.56500000000003 345.50000000000006 73.500000000000014 497.56500000000005 615.05000000000007 156.15500000000003 67.500000000000014 313.53000000000003 30.500000000000004 2102.4400000000001
decision_type=2 2 2 2 2 2 2 2 2 2 2 2 2 2 2 2 2 2 2 2 2 2 2 2 2 2 2 2 2 2
left_child=1 6 4 9 8 17 12 11 -2 20 -6 -5 25 16 -15 -10 -13 18 19 -4 -3 27 23 -14 -25 26 -1 -22 -8 -30
right_child=2 3 5 7 10 -7 28 -9 15 -11 -12 13 22 14 -16 -17 -18 -19 -20 -21 21 -23 -24 24 -26 -27 -28 -29 29 -31
leaf_value=0.019388469627925328 0.049851360415468123 -0.078296682814469096 0.016720197187072929 -0.030569656296418266 0.14857289442268937 -0.098185377696464807 0.053043280574646627 -0.065977553656352828 0.086627820655703555 -0.088294934014516047 0.2120137691078052 -0.040511711173587373 0.036537779438533362 0.055130710874695378 -0.022204713688956369 0.12667895129748755 0.043568844795227053 -0.010680016699959251 0.096485538538112203 0.096741456290086125 -0.041277032326429319 0.0034980556794575283 -0.014908236340631412 -0.04670596111904491 0.020514525506231521 -0.086082520555047434 -0.063668879071871451 -0.071220647533174974 0.01935196658035359 0.10533850044012071
leaf_weight=35 101 207 87 520 217 29 182 199 160 541 71 90 158 83 36 210 20 34 43 24 195 42 158 55 90 34 30 213 332 28
leaf_count=35 101 207 87 520 217 29 182 199 160 541 71 90 158 83 36 210 20 34 43 24 195 42 158 55 90 34 30 213 332 28
internal_value=4.07983e-10 -0.0300204 0.0999038 -0.0536212 0.122255 0.0217273 0.0159391 -0.0295611 0.0965988 -0.0726603 0.164213 -0.0198857 -0.00261309 0.00437468 0.0317351 0.10936 -0.0252243 0.0402245 0.0514632 0.0340221 -0.0597862 -0.0512713 0.00584587 0.0166681 -0.0049829 -0.0420028 -0.0189457 -0.0569094 0.0351074 0.0260398
internal_weight=4224 3248 976 2146 759 217 1102 948 471 1198 288 749 560 229 119 370 110 188 154 111 657 450 461 303 145 99 65 408 542 360
internal_count=4224 3248 976 2146 759 217 1102 948 471 1198 288 749 560 229 119 370 110 188 154 111 657 450 461 303 145 99 65 408 542 360
is_linear=0
shrinkage=0.05


Tree=6
num_leaves=31
num_cat=0
split_feature=2 0 0 2 1 0 2 0 2 0 2 2 1 1 0 0 1 0 1 1 2 0 2 2 2 1 1 2 2 2
split_gain=4573.3 1271.82 615.641 354.88 297.654 177.141 141.471 120.582 108.462 87.0502 70.0838 67.5462 66.9488 64.4466 56.4913 54.2123 43.1382 41.7617 41.6672 54.941 38.2814 37.3548 48.8662 55.6862 34.1116 34.1095 44.5204 33.7296 39.0501 32.043
threshold=2312.9250000000006 126.50000000000001 113.50000000000001 497.56500000000005 12.500000000000002 329.50000000000006 845.07500000000016 360.50000000000006 24142.245000000006 370.50000000000006 1279.6250000000002 207.17000000000004 4.5000000000000009 6.5000000000000009 64.500000000000014 275.50000000000006 17.500000000000004 332.50000000000006 11.500000000000002 8.5000000000000018 91.370000000000019 73.500000000000014 497.56500000000005 615.05000000000007 764.36000000000013 10.500000000000002 9.5000000000000018 906.30500000000018 953.63000000000011 1655.0900000000004
decision_type=2 2 2 2 2 2 2 2 2 2 2 2 2 2 2 2 2 2 2 2 2 2 2 2 2 2 2 2 2 2
left_child=1 6 4 9 13 18 11 10 14 20 27 -1 17 -2 -6 -14 -16 29 19 -4 -3 22 -13 -24 -9 26 -15 -5 -29 -12
right_child=2 3 5 7 8 -7 -8 24 -10 -11 12 21 15 25 16 -17 -18 -19 -20 -21 -22 -23 23 -25 -26 -27 -28 28 -30 -31
leaf_value=-0.038843973955282801 0.053842497006192938 -0.098400611970938898 0.036339557381591413 -0.020166246959141324 0.14731948866310535 -0.06645917400069859 0.03335202350057799 -0.038704842679640833 0.2244042849256879 -0.083880184902060728 -0.06899091628464786 0.035647971014822685 0.052374175155019187 0.094517730808021228 0.13363755526749985 -0.02109447949462467 0.034519240118208387 0.041390401721000669 -0.006400701132687656 0.10640567067341927 -0.05329555860250304 -0.014034808522615677 -0.044370662407441579 0.019488792353206212 -0.080553909142812102 0.069542956030046621 0.14543049335479738 -0.10246269438001845 -0.036900198084491118 -0.0093076345713242244
leaf_weight=104 111 51 99 350 277 46 542 85 42 541 44 155 83 151 23 36 21 20 33 39 606 156 55 90 114 74 60 27 143 46
leaf_count=104 111 51 99 350 277 46 542 85 42 541 44 155 83 151 23 36 21 20 33 39 606 156 55 90 114 74 60 27 143 46
internal_value=5.14697e-10 -0.0285193 0.0949086 -0.0509401 0.116142 0.020641 0.0151421 -0.0280831 0.148846 -0.0690273 -0.0188914 -0.00248243 0.00415595 0.0861634 0.13896 0.0301484 0.0863311 -0.0239631 0.0440714 0.0561409 -0.0567969 0.00581055 0.0161301 -0.00473376 -0.0626787 0.0987515 0.108995 -0.0290412 -0.0473131 -0.0384861
internal_weight=4224 3248 976 2146 759 217 1102 948 363 1198 749 560 229 396 321 119 44 110 171 138 657 456 300 145 199 285 211 520 170 90
internal_count=4224 3248 976 2146 759 217 1102 948 363 1198 749 560 229 396 321 119 44 110 171 138 657 456 300 145 199 285 211 520 170 90
is_linear=0
shrinkage=0.05


Tree=7
num_leaves=31
num_cat=0
split_feature=2 0 0 2 1 2 0 2 0 0 1 2 0 1 2 2 1 0 0 0 2 0 2 0 0 2 2 2 0 2
split_gain=4127.4 1147.82 556.95 320.279 318.256 127.678 108.825 107.209 94.2136 78.5628 75.9131 86.3805 68.3092 78.1934 63.2506 60.9725 60.4213 48.9266 44.4757 37.6899 36.3233 40.229 35.7818 50.1631 33.7422 42.5225 50.2568 32.9511 31.8215 68.9226
threshold=2312.9250000000006 126.50000000000001 204.50000000000003 497.56500000000005 12.500000000000002 845.07500000000016 360.50000000000006 19278.930000000004 372.50000000000006 370.50000000000006 3.5000000000000004 6691.2500000000009 64.500000000000014 15.500000000000002 1279.6250000000002 200.18000000000004 4.5000000000000009 275.50000000000006 296.50000000000006 332.50000000000006 156.15500000000003 67.500000000000014 189.56500000000003 345.50000000000006 73.500000000000014 497.56500000000005 615.05000000000007 313.53000000000003 30.500000000000004 2102.4400000000001
decision_type=2 2 2 2 2 2 2 2 2 2 2 2 2 2 2 2 2 2 2 2 2 2 2 2 2 2 2 2 2 2
left_child=1 5 4 9 10 15 14 12 18 22 -2 -12 -6 -14 -5 20 19 -18 -4 -16 21 -1 -3 27 25 -17 -27 -24 -7 -30
right_child=2 3 8 6 7 28 -8 -9 -10 -11 11 -13 13 -15 16 24 17 -19 -20 -21 -22 -23 23 -25 -26 26 -28 -29 29 -31
leaf_value=0.020361243997301375 -0.0058253806370955246 -0.071161428007526673 -0.01463865085884377 -0.027589112692154374 0.13816720903589483 0.048723511250464473 -0.059544748397328755 0.20384488598340089 -0.089953148159487503 -0.079686175774294002 0.075081332308658655 0.1503363614990598 0.14999055726961658 0.028296891848246259 -0.036561822361416287 0.03299921279938161 0.049755466487034258 -0.02003975378142463 0.057720861434936523 0.039320880770683291 -0.079836192201165598 -0.05854323744773865 -0.036548405121534303 0.0059879322846730556 -0.013445386026479021 -0.042152129628441552 0.018514351778560215 -0.064994836972912723 0.016716766671602986 0.098403976219041012
leaf_weight=35 26 207 54 520 267 182 199 54 29 541 414 42 22 33 90 158 83 36 35 20 34 30 195 42 158 55 90 213 332 28
leaf_count=35 26 207 54 520 267 182 199 54 29 541 414 42 22 33 90 158 83 36 35 20 34 30 195 42 158 55 90 213 332 28
internal_value=1.7039e-10 -0.0270934 0.0901632 -0.0483931 0.10417 0.014385 -0.0266789 0.138649 -0.0116856 -0.0655759 0.0772746 0.0820127 0.127715 0.0769744 -0.0179469 -0.00235831 0.00394815 0.0286409 0.0138173 -0.022765 -0.0379604 -0.0160562 -0.053957 -0.046043 0.00528726 0.0150554 -0.00449707 -0.0513991 0.0316844 0.0230702
internal_weight=4224 3248 976 2146 858 1102 948 376 118 1198 482 456 322 55 749 560 229 119 89 110 99 65 657 450 461 303 145 408 542 360
internal_count=4224 3248 976 2146 858 1102 948 376 118 1198 482 456 322 55 749 560 229 119 89 110 99 65 657 450 461 303 145 408 542 360
is_linear=0
shrinkage=0.05


Tree=8
num_leaves=31
num_cat=0
split_feature=1 2 0 0 0 2 2 2 0 2 0 0 0 1 0 2 1 0 1 1 2 2 0 2 2 0 2 1 0 1
split_gain=3725.33 844.758 690.436 399.704 216.125 173.156 164.037 103.476 98.3486 82.5336 80.2713 72.4419 60.7509 55.993 64.5139 49.1502 38.2841 35.1683 36.5838 33.5003 31.9076 27.5333 40.6117 41.6299 27.43 26.255 27.016 27.3726 25.6586 24.8498
threshold=4.5000000000000009 2627.3800000000006 127.50000000000001 113.50000000000001 364.00000000000006 9914.9550000000017 1094.5900000000004 424.16500000000002 81.500000000000014 216.09000000000003 226.50000000000003 277.50000000000006 47.500000000000007 12.500000000000002 38.500000000000007 795.3900000000001 9.5000000000000018 21.500000000000004 1.5000000000000002 8.5000000000000018 24142.245000000006 2627.3800000000006 346.50000000000006 845.07500000000016 91.370000000000019 333.50000000000006 824.43500000000006 1.5000000000000002 353.50000000000006 11.500000000000002
decision_type=2 2 2 2 2 2 2 2 2 2 2 2 2 2 2 2 2 2 2 2 2 2 2 2 2 2 2 2 2 2
left_child=2 6 9 5 7 13 8 24 15 -1 19 -8 20 14 -3 -2 -12 18 -11 -5 -7 22 25 -24 -4 26 27 -9 -26 -21
right_child=1 3 4 10 -6 12 11 21 -10 17 16 -13 -14 -15 -16 -17 -18 -19 -20 29 -22 -23 23 -25 28 -27 -28 -29 -30 -31
leaf_value=-0.033217084207454652 -0.036869511380791663 0.06553528648920548 -0.08921579768260321 0.014002867888759924 -0.07146838559242695 0.15968123715032231 0.044404138308994319 -0.042241351245200801 -0.058590526595002128 0.080080750494292294 0.012248498659867508 -0.0093864424587929082 0.086368783450664288 0.12097456894711965 0.11283744618699734 0.051074695650567409 -0.076309288584667706 0.0060062819629683531 0.020118618531672808 0.10469375733406312 0.21401190773034706 0.028613586723804475 -0.030589619278907777 0.069081828269091525 -0.052325273479944395 -0.062163559523495761 -0.037894330484660593 -0.0069669440990071663 -0.0022474924723307295 0.034249971594129291
leaf_weight=119 24 156 48 37 736 88 439 73 84 33 26 73 22 217 134 47 23 532 111 31 39 24 20 22 486 55 254 223 27 21
leaf_count=119 24 156 48 37 736 88 439 73 84 33 26 73 22 217 134 47 23 532 111 31 39 24 20 22 486 55 254 223 27 21
internal_value=1.22288e-10 0.0645737 -0.0341448 0.0994206 -0.0500308 0.115692 0.0230918 -0.0372239 -0.0219739 0.0051803 0.022074 0.0367348 0.163077 0.101766 0.0873921 0.0213471 -0.0293194 0.0119396 0.0338599 0.0503692 0.176365 -0.0239742 -0.0259249 0.0216192 -0.0530715 -0.0292255 -0.0259316 -0.0156664 -0.0496896 0.0762453
internal_weight=4224 1461 2763 794 1968 656 667 1232 155 795 138 512 149 507 290 71 49 676 144 89 127 671 647 42 561 605 550 296 513 52
internal_count=4224 1461 2763 794 1968 656 667 1232 155 795 138 512 149 507 290 71 49 676 144 89 127 671 647 42 561 605 550 296 513 52
is_linear=0
shrinkage=0.05


Tree=9
num_leaves=31
num_cat=0
split_feature=2 0 0 2 2 0 2 0 1 0 1 0 2 2 1 2 2 0 0 2 2 0 0 0 0 2 2 0 2 2
split_gain=3368.32 934.728 456.216 264.53 228.967 140.163 106.84 87.1595 78.8359 64.8459 62.08 59.4915 58.1588 52.5978 47.7938 45.6597 42.2882 52.0479 40.7422 39.7565 86.5965 35.8756 55.7255 35.4182 34.2759 35.7359 38.805 35.4673 31.7422 30.6239
threshold=2312.9250000000006 126.50000000000001 113.50000000000001 497.56500000000005 5986.5800000000008 329.50000000000006 1094.5900000000004 360.50000000000006 6.5000000000000009 370.50000000000006 38.500000000000007 65.500000000000014 419.55500000000006 1279.6250000000002 4.5000000000000009 3496.2250000000008 775.23000000000013 79.500000000000014 275.50000000000006 836.54500000000007 906.30500000000018 283.50000000000006 204.50000000000003 23.500000000000004 267.50000000000006 1848.4350000000002 1488.3950000000002 173.50000000000003 764.36000000000013 189.56500000000003
decision_type=2 2 2 2 2 2 2 2 2 2 2 2 2 2 2 2 2 2 2 2 2 2 2 2 2 2 2 2 2 2
left_child=1 6 4 9 8 21 11 13 23 29 -6 19 -13 -5 24 -10 -14 -18 -16 -1 -21 22 -4 -2 27 26 -26 -15 -9 -3
right_child=2 3 5 7 10 -7 -8 28 15 -11 -12 12 16 14 18 -17 17 -19 -20 20 -22 -23 -24 -25 25 -27 -28 -29 -30 -31
leaf_value=0.0060680206281593053 -0.0087058958198343011 -0.064672819917328692 0.050917180258818355 -0.024940817986543365 0.12499145832309713 -0.059958947871042334 0.033378947653152323 -0.030249240819145651 0.068820278609637173 -0.072132020472598826 0.18951537636193364 -0.044424936494656973 0.024112111826737725 -0.0083009998003641776 0.045047486259276612 0.10427447280713492 -0.090552323243834762 -0.00084362284081881164 -0.018643153707186381 0.12466562216480573 0.0091221849918365471 0.096455632344536163 -0.014277534338892723 0.057440111490145121 0.022297697481901749 0.05464483553713019 -0.070587171749635177 -0.099145216833461419 -0.070618750651677456 -0.041435220850838561
leaf_weight=332 28 207 99 520 244 46 405 85 160 541 44 112 96 21 83 210 22 61 36 24 50 23 49 73 23 22 22 22 114 450
leaf_count=332 28 207 99 520 244 46 405 85 160 541 44 112 96 21 83 210 22 61 36 24 50 23 49 73 23 22 22 22 114 450
internal_value=1.46401e-10 -0.0244755 0.0814512 -0.0436967 0.0997297 0.0175188 0.0129553 -0.0239626 0.0782553 -0.0593126 0.134849 0.00108784 -0.0161665 -0.016148 0.00381829 0.0889429 0.00151481 -0.0246218 0.0257797 0.0134548 0.0465957 0.0383607 0.0293324 0.0391026 -0.01994 0.00241964 -0.0231127 -0.0547794 -0.0533755 -0.0487567
internal_weight=4224 3248 976 2146 759 217 1102 948 471 1198 288 697 291 749 229 370 179 83 119 406 74 171 148 101 110 67 45 43 199 657
internal_count=4224 3248 976 2146 759 217 1102 948 471 1198 288 697 291 749 229 370 179 83 119 406 74 171 148 101 110 67 45 43 199 657
is_linear=0
shrinkage=0.05


Tree=10
num_leaves=31
num_cat=0
split_feature=1 2 0 0 0 2 2 2 0 2 0 0 0 1 0 2 1 2 0 1 2 2 0 2 2 0 2 1 2 0
split_gain=3042.3 690.558 559.642 327.618 177.014 143.59 139.495 85.0538 84.4148 69.5284 67.494 57.8639 53.4357 46.4675 56.8508 43.5397 36.2428 32.4734 30.8996 33.2628 26.7309 25.5186 24.2149 39.6805 34.9138 24.0065 24.8431 24.5505 23.6834 23.3506
threshold=4.5000000000000009 2627.3800000000006 127.50000000000001 113.50000000000001 364.00000000000006 9914.9550000000017 1094.5900000000004 424.16500000000002 81.500000000000014 216.09000000000003 226.50000000000003 277.50000000000006 47.500000000000007 12.500000000000002 38.500000000000007 795.3900000000001 9.5000000000000018 4914.3550000000005 21.500000000000004 1.5000000000000002 24142.245000000006 3141.2850000000003 346.50000000000006 2627.3800000000006 866.58000000000004 333.50000000000006 824.43500000000006 1.5000000000000002 91.370000000000019 273.50000000000006
decision_type=2 2 2 2 2 2 2 2 2 2 2 2 2 2 2 2 2 2 2 2 2 2 2 2 2 2 2 2 2 2
left_child=2 6 9 5 7 13 8 28 15 -1 17 -8 20 14 -3 -2 -12 21 19 -11 -7 -5 23 25 -24 26 27 -9 -4 -29
right_child=1 3 4 10 -6 12 11 22 -10 18 16 -13 -14 -15 -16 -17 -18 -19 -20 -21 -22 -23 24 -25 -26 -27 -28 29 -30 -31
leaf_value=-0.030693929736353771 -0.035367031395435337 0.058298600407747127 -0.081521362562974306 0.066170460553396315 -0.064559733252162521 0.14493434239517561 0.040284644576438738 -0.038644991427251738 -0.054632557857604264 0.075372545827518816 0.013153939063732439 -0.0077898862427228117 0.075800769877704718 0.10940916931024894 0.10270265550978148 0.047405694203173865 -0.073010588728863263 0.085124815684376354 0.0051909995370341428 0.018196752976189862 0.19466277429690729 -0.0035481372901371546 -0.028258865812550424 0.041889609531922778 0.060911646911076138 -0.057966733845797452 -0.034792499068215139 -0.021637114448980851 -0.044793629251260743 0.010724917344287434
leaf_weight=119 24 156 48 21 736 88 439 73 84 33 26 73 22 217 134 47 23 33 532 111 39 35 23 22 21 55 254 110 513 113
leaf_count=119 24 156 48 21 736 88 439 73 84 33 26 73 22 217 134 47 23 33 532 111 39 35 23 22 21 55 254 110 513 113
internal_value=2.2066e-10 0.0583545 -0.0308563 0.0898608 -0.0451586 0.104592 0.0208492 -0.0335683 -0.0207089 0.00454864 0.0198353 0.0334303 0.147743 0.0919103 0.0788163 0.0194262 -0.0272906 0.0457811 0.0107526 0.0312995 0.160205 0.0225963 -0.0215558 -0.024072 0.0142998 -0.0264706 -0.023321 -0.0134772 -0.0479361 -0.00523842
internal_weight=4224 1461 2763 794 1968 656 667 1232 155 795 138 512 149 507 290 71 49 89 676 144 127 56 671 627 44 605 550 296 561 223
internal_count=4224 1461 2763 794 1968 656 667 1232 155 795 138 512 149 507 290 71 49 89 676 144 127 56 671 627 44 605 550 296 561 223
is_linear=0
shrinkage=0.05


Tree=11
num_leaves=31
num_cat=0
split_feature=2 0 0 1 2 0 2 2 0 1 2 1 2 0 0 0 2 2 0 2 2 2 0 0 1 0 1 2 0 0
split_gain=2748.97 690.359 422.823 228.551 215.212 125.053 75.8027 73.6331 65.2079 64.793 53.9728 53.0443 59.9822 50.7785 49.3904 48.1732 43.7721 43.562 39.8855 37.1983 35.9413 56.7977 47.6832 50.3681 38.794 34.4636 34.3864 33.8921 31.2238 44.6818
threshold=2102.4400000000001 120.50000000000001 139.00000000000003 12.500000000000002 450.01000000000005 374.50000000000006 216.09000000000003 33717.30000000001 211.50000000000003 3.5000000000000004 6691.2500000000009 11.500000000000002 4914.3550000000005 372.50000000000006 43.500000000000007 30.500000000000004 3813.3300000000004 1820.2100000000003 192.50000000000003 2353.3250000000003 1146.3100000000002 1488.3950000000002 101.50000000000001 17.500000000000004 6.5000000000000009 59.500000000000007 17.500000000000004 1488.3950000000002 112.50000000000001 97.500000000000014
decision_type=2 2 2 2 2 2 2 2 2 2 2 2 2 2 2 2 2 2 2 2 2 2 2 2 2 2 2 2 2 2
left_child=1 6 3 9 13 11 -1 15 18 -2 14 12 -4 -3 19 26 -17 -10 27 -11 25 -22 23 24 -23 -8 -5 -6 29 -27
right_child=2 4 5 7 8 -7 20 -9 17 10 -12 -13 -14 -15 -16 16 -18 -19 -20 -21 21 22 -24 -25 -26 28 -28 -29 -30 -31
leaf_value=-0.027930994651147296 -0.016538576006889346 -0.044760260014397327 0.018038690187097566 0.097210646199656067 -0.020748149633407594 -0.079428490168518495 0.019053419321639148 0.1949021100997925 -0.033233230656154529 -0.0035570877439835497 0.1248905372288492 -0.051487629186539423 0.097976356128166464 -0.065930131158625435 0.078652177027706965 0.020162883530492368 0.09673437772676198 0.021740999033576566 0.044328209161758426 0.053393242837952784 0.055155614921896481 0.098470151424407959 0.075644289255142216 -0.015981126040743109 0.0022534256631677801 0.0011163897724712597 0.13669129976204464 0.023072804687386855 0.046315197990490845 -0.050730280225927182
leaf_weight=112 25 628 123 91 175 36 328 26 697 34 36 21 29 516 206 23 99 38 40 183 127 20 25 114 22 170 140 59 26 55
leaf_count=112 25 628 123 91 175 36 328 26 697 34 36 21 29 516 206 23 99 38 40 183 127 20 25 114 22 170 140 59 26 55
internal_value=-4.86387e-10 -0.0235232 0.0691653 0.0846186 -0.0394627 0.00535602 0.0108289 0.113696 -0.0226302 0.0618491 0.0661186 0.022999 0.03329 -0.0543089 0.0611167 0.107715 0.0822988 -0.030391 -0.00181205 0.0444701 0.015723 0.0295227 0.0115372 0.00126365 0.0480709 0.00838228 0.121138 -0.00969928 -0.00556249 -0.0115572
internal_weight=4224 3152 1072 863 2153 209 999 379 1009 484 459 173 152 1144 423 353 122 735 274 217 887 308 181 156 42 579 231 234 251 225
internal_count=4224 3152 1072 863 2153 209 999 379 1009 484 459 173 152 1144 423 353 122 735 274 217 887 308 181 156 42 579 231 234 251 225
is_linear=0
shrinkage=0.05


Tree=12
num_leaves=31
num_cat=0
split_feature=1 2 0 0 2 0 2 2 0 2 0 0 0 0 2 2 0 1 0 0 0 2 0 1 1 2 2 2 0 0
split_gain=2492.38 560.077 460.655 270.555 119.215 118.622 117.551 76.5103 72.0403 67.9975 55.5624 47.8118 46.3333 43.0234 82.7906 39.1627 37.5065 36.9377 49.0593 33.5539 33.518 47.0763 33.1442 31.2023 30.105 29.6934 28.7155 53.0452 27.0325 45.8526
threshold=4.5000000000000009 2627.3800000000006 171.50000000000003 113.50000000000001 1094.5900000000004 364.00000000000006 9914.9550000000017 233.37500000000003 81.500000000000014 533.12000000000012 226.50000000000003 322.50000000000006 47.500000000000007 345.50000000000006 267.54000000000002 795.3900000000001 36.500000000000007 12.500000000000002 38.500000000000007 275.50000000000006 211.50000000000003 1186.6850000000002 67.500000000000014 9.5000000000000018 8.5000000000000018 678.78500000000008 1848.4350000000002 1488.3950000000002 43.500000000000007 53.500000000000007
decision_type=2 2 2 2 2 2 2 2 2 2 2 2 2 2 2 2 2 2 2 2 2 2 2 2 2 2 2 2 2 2
left_child=2 4 7 6 8 9 17 22 15 13 24 -6 -8 -4 -15 -2 -9 18 -3 20 21 25 -1 -12 -5 -11 27 -21 -18 -30
right_child=1 3 5 10 11 -7 12 16 -10 19 23 -13 -14 14 -16 -17 28 -19 -20 26 -22 -23 -24 -25 -26 -27 -28 -29 29 -31
leaf_value=-0.0066732209998291818 -0.034266618763407072 0.052370271908167079 -0.04836103757299802 0.0066230078806748267 0.034810717238320243 -0.05846427602936393 0.14522622208895647 0.023579224026338622 -0.050716061606293633 -0.023230412460508804 0.012325171782420232 -0.025734402622495378 0.066630948673595078 -0.062681007385253909 0.064754036903381357 0.04423539181973072 -0.03926347125144232 0.098706165182700367 0.093619412806496702 -0.0083969283778712444 -0.056799065159714751 -0.069823179461739285 -0.05102503286894932 -0.067623354559359347 0.065627082379964688 0.059003898890122121 0.032924258377816942 -0.090951913311367941 0.047030225166907684 -0.0023117875837417971
leaf_weight=77 24 156 514 37 477 736 127 220 84 21 26 35 22 26 25 47 42 217 134 265 92 22 93 23 52 23 36 21 52 498
leaf_count=77 24 156 514 37 477 736 127 220 84 21 26 35 22 26 25 47 42 217 134 265 92 22 93 23 52 23 36 21 52 498
internal_value=7.2495e-11 0.0528179 -0.0279287 0.0811919 0.0190413 -0.0430884 0.0945787 -0.000434319 -0.0193773 -0.032259 0.0175564 0.0306719 0.133622 -0.0440149 -0.000212848 0.0176995 0.00595156 0.0831045 0.0714302 -0.0184214 -0.0372935 -0.0101039 -0.0309363 -0.0252017 0.0410973 0.0197557 -0.00916119 -0.0144587 -0.000599264 0.00235328
internal_weight=4224 1461 2763 794 667 1781 656 982 155 1045 138 512 149 565 51 71 812 507 290 480 158 66 170 49 89 44 322 286 592 550
internal_count=4224 1461 2763 794 667 1781 656 982 155 1045 138 512 149 565 51 71 812 507 290 480 158 66 170 49 89 44 322 286 592 550
is_linear=0
shrinkage=0.05


Tree=13
num_leaves=31
num_cat=0
split_feature=1 2 0 0 2 0 2 0 2 2 0 0 0 2 0 2 0 2 1 0 0 2 0 0 2 1 1 0 2 0
split_gain=2249.38 507.758 415.741 234.137 145.678 107.057 95.2948 76.8274 69.8023 61.3678 42.1142 39.4351 38.8286 74.7185 34.8681 48.92 39.3409 34.1775 32.9079 37.0289 30.5128 33.0597 30.2824 30.25 42.4864 27.7112 27.5407 26.8735 26.7983 26.3298
threshold=4.5000000000000009 3496.2250000000008 171.50000000000003 186.50000000000003 1242.9350000000002 364.00000000000006 16807.575000000004 120.50000000000001 204.05500000000004 533.12000000000012 330.50000000000006 277.50000000000006 345.50000000000006 267.54000000000002 95.500000000000014 1655.0900000000004 87.500000000000014 795.3900000000001 18.500000000000004 23.500000000000004 67.500000000000014 156.15500000000003 275.50000000000006 211.50000000000003 1186.6850000000002 23.500000000000004 8.5000000000000018 101.50000000000001 678.78500000000008 53.500000000000007
decision_type=2 2 2 2 2 2 2 2 2 2 2 2 2 2 2 2 2 2 2 2 2 2 2 2 2 2 2 2 2 2
left_child=2 4 8 6 7 9 18 17 20 12 26 -5 -4 -14 16 27 29 -2 -3 -20 21 -1 23 24 28 -21 -6 -16 -11 -10
right_child=1 3 5 11 10 -7 -8 -9 14 22 -12 -13 13 -15 15 -17 -18 -19 19 25 -22 -23 -24 -25 -26 -27 -28 -29 -30 -31
leaf_value=0.023965546914509365 -0.031460512677828477 0.077956724807358629 -0.045942985396904709 0.022898591558138531 0.032134069748363407 -0.055541061569491158 0.14882269536278078 -0.053990094198120966 0.016821721164942956 -0.022068891922632852 -0.01546692509908934 -0.068721513126207431 -0.059546956419944765 0.061516336441040043 -0.07009384688876924 0.049614731967449192 0.058888086960429242 0.028592740779831295 0.12704869912958694 0.10411070772579739 -0.054790600271601431 -0.05320215173389601 -0.0087031300578798571 -0.053959113877752554 -0.066332020542838363 0.03435433153063059 0.054419007984179896 -0.011176723531383253 0.056053702727608061 -0.0071575679438454767
leaf_weight=35 33 342 514 24 424 736 70 72 331 21 37 23 26 25 21 32 42 84 87 35 76 23 322 92 22 24 206 247 23 175
leaf_count=35 33 342 514 24 424 736 70 72 331 21 37 23 26 25 21 32 42 84 87 35 76 23 322 92 22 24 206 247 23 175
internal_value=7.24289e-11 0.050177 -0.0265322 0.0852386 0.0253963 -0.040934 0.094266 -0.0133529 -0.000412603 -0.0306461 0.0363761 -0.0219368 -0.0418142 -0.000202205 0.00488652 -0.0088165 0.0123882 0.0116546 0.0864402 0.106312 -0.0339473 -0.00663544 -0.0175003 -0.0354288 -0.00959873 0.0757352 0.0394209 -0.0157934 0.0187679 0.00852849
internal_weight=4224 1461 2763 605 856 1781 558 189 982 1045 667 47 565 51 848 300 548 117 488 146 134 58 480 158 66 59 630 268 44 506
internal_count=4224 1461 2763 605 856 1781 558 189 982 1045 667 47 565 51 848 300 548 117 488 146 134 58 480 158 66 59 630 268 44 506
is_linear=0
shrinkage=0.05


Tree=14
num_leaves=31
num_cat=0
split_feature=2 0 0 2 2 0 2 1 0 2 0 0 0 1 1 1 1 2 2 0 0 1 2 0 2 0 2 1 1 1
split_gain=2034.86 511.596 313.553 160.61 159.782 111.594 56.7439 54.7695 48.7813 45.7316 41.8934 38.9822 29.0574 28.5911 42.5 28.517 26.7817 26.7701 53.1728 42.9851 44.4213 27.7757 26.075 26.0412 29.8805 62.3623 46.5468 37.4526 22.55 21.6568
threshold=2102.4400000000001 120.50000000000001 116.50000000000001 450.01000000000005 5986.5800000000008 374.50000000000006 216.09000000000003 9.5000000000000018 319.50000000000006 1848.4350000000002 16.500000000000004 491.50000000000006 30.500000000000004 10.500000000000002 11.500000000000002 6.5000000000000009 17.500000000000004 1146.3100000000002 1488.3950000000002 101.50000000000001 31.500000000000004 5.5000000000000009 193.40000000000003 59.500000000000007 419.55500000000006 110.50000000000001 658.78000000000009 2.5000000000000004 2.5000000000000004 3.5000000000000004
decision_type=2 2 2 2 2 2 2 2 2 2 2 2 2 2 2 2 2 2 2 2 2 2 2 2 2 2 2 2 2 2
left_child=1 6 4 11 7 -4 -1 12 9 -5 16 22 15 -9 -15 -2 -6 23 21 20 -20 28 -3 -8 -25 26 -26 -28 -19 -29
right_child=2 3 5 8 10 -7 17 13 -10 -11 -12 -13 -14 14 -16 -17 -18 18 19 -21 -22 -23 -24 24 25 -27 27 29 -30 -31
leaf_value=-0.02420174117599215 -0.010104661658406259 -0.052312466304704368 0.024106639525700066 -0.014690577533064769 0.085372912691485503 -0.07107422980997298 0.01650845703623462 0.11001495153953632 -0.033866592323457873 0.038134922832250596 0.087474371422013628 -0.06251505503475463 0.056592610921888123 0.018673229378622935 0.078065852452943355 0.04182145729278907 0.13882620986551047 0.082083722523280556 0.030738051448549544 0.068942293167114255 -0.023639056246767765 0.089743392982266176 -0.034369484801742615 -0.035335778701500814 0.028825359779690942 0.086147847345897144 -0.081900568630384363 0.030248741805553439 0.023289301297436022 -0.026085752652863326
leaf_weight=112 40 332 213 595 31 36 328 48 370 44 163 293 168 37 162 78 96 21 63 25 93 33 519 61 63 21 23 24 73 59
leaf_count=112 40 332 213 595 31 36 328 48 370 44 163 293 168 37 162 78 96 21 63 25 93 33 519 61 63 21 23 24 73 59
internal_value=2.21542e-10 -0.0202386 0.0595074 -0.0339601 0.0743815 0.0103455 0.00933336 0.0581308 -0.0194188 -0.0110531 0.104249 -0.0467853 0.0432358 0.0753777 0.067023 0.0242194 0.125779 0.0135678 0.0254774 0.00807526 -0.00167907 0.0502788 -0.0413696 0.00723245 -0.00488917 0.00488579 -0.00521186 -0.0254415 0.0364242 -0.00979626
internal_weight=4224 3152 1072 2153 823 249 999 533 1009 639 290 1144 286 247 199 118 127 887 308 181 156 127 851 579 251 190 169 106 94 83
internal_count=4224 3152 1072 2153 823 249 999 533 1009 639 290 1144 286 247 199 118 127 887 308 181 156 127 851 579 251 190 169 106 94 83
is_linear=0
shrinkage=0.05


Tree=15
num_leaves=31
num_cat=0
split_feature=1 2 0 0 2 0 2 0 2 2 0 1 0 0 2 2 0 0 0 0 0 2 0 2 0 0 1 2 0 2
split_gain=1845.62 417.492 339.739 197.418 97.7357 88.0486 82.5012 57.9788 56.8526 49.9337 47.5471 39.4709 38.0919 35.2311 66.7024 32.5951 30.299 28.9654 31.2911 28.472 28.3123 41.4199 35.3237 28.0586 43.2334 47.1063 54.3714 34.7432 27.1227 39.5076
threshold=4.5000000000000009 2437.0200000000004 171.50000000000003 94.500000000000014 16807.575000000004 364.00000000000006 1094.5900000000004 81.500000000000014 204.05500000000004 533.12000000000012 319.50000000000006 12.500000000000002 277.50000000000006 345.50000000000006 267.54000000000002 795.3900000000001 38.500000000000007 5.5000000000000009 17.500000000000004 275.50000000000006 95.500000000000014 1655.0900000000004 87.500000000000014 1655.0900000000004 82.500000000000014 57.500000000000007 7.5000000000000009 1848.4350000000002 211.50000000000003 1186.6850000000002
decision_type=2 2 2 2 2 2 2 2 2 2 2 2 2 2 2 2 2 2 2 2 2 2 2 2 2 2 2 2 2 2
left_child=2 6 8 4 11 9 7 15 -1 13 -5 16 17 -4 -15 -2 -3 -8 -19 28 22 -22 -10 -20 25 26 -25 -26 29 -11
right_child=1 3 5 10 -6 -7 12 -9 20 19 -12 -13 -14 14 -16 -17 -18 18 23 -21 21 -23 -24 24 27 -27 -28 -29 -30 -31
leaf_value=-0.03068614321858136 -0.031486708546678226 0.048669511234829196 -0.041729253901581824 0.033600557185489044 0.1378203863359016 -0.050299285336033166 -0.014259689594760087 -0.045454190671443941 0.0074632652070080645 0.018564053015275438 -0.040278157234191897 0.088420607891988579 -0.010683525158808783 -0.054230030683370734 0.060154969215393067 0.040131067785810916 0.080757275433279582 0.075254547595977786 0.047217831180523369 -0.0073340619572941565 -0.014406768288185349 0.04577888883650303 0.055182472439039322 -0.022788067758083345 -0.0040176530971246611 -0.074708132374854325 0.075072925741022284 0.056914675196011871 -0.050794900370680768 -0.063498407060449777
leaf_weight=134 24 173 514 169 69 736 33 84 506 44 25 279 65 26 25 47 128 42 131 322 268 32 42 40 34 21 22 75 92 22
leaf_count=134 24 173 514 169 69 736 33 84 506 44 25 279 65 26 25 47 128 42 131 322 268 32 42 40 34 21 22 75 92 22
internal_value=1.32238e-10 0.0454511 -0.0240333 0.068336 0.081565 -0.0370523 0.0142342 -0.0173398 -0.000421544 -0.0277223 0.0240801 0.0748726 0.0248044 -0.0377964 0.00184105 0.0159222 0.0623148 0.0306002 0.034656 -0.0158643 0.00436083 -0.00798696 0.0111206 0.0293769 0.0172042 -0.00998541 0.0119368 0.0379083 -0.0332486 -0.0087901
internal_weight=4224 1461 2763 843 649 1781 618 155 982 1045 194 580 463 565 51 71 301 398 365 480 848 300 548 323 192 83 62 109 158 66
internal_count=4224 1461 2763 843 649 1781 618 155 982 1045 194 580 463 565 51 71 301 398 365 480 848 300 548 323 192 83 62 109 158 66
is_linear=0
shrinkage=0.05


Tree=16
num_leaves=31
num_cat=0
split_feature=1 2 0 0 2 0 2 0 2 2 1 1 0 0 2 0 2 2 0 0 0 0 0 0 0 0 2 2 2 2
split_gain=1665.67 379.813 306.614 200.326 123.879 79.4639 62.3615 61.3346 51.603 45.0652 39.1456 32.9178 71.0357 31.7961 60.1989 28.4739 28.1039 27.2063 26.7258 37.5 26.4648 25.696 25.3692 24.5744 24.5326 24.4782 35.6556 24.424 24.1855 23.8681
threshold=4.5000000000000009 3883.3750000000005 171.50000000000003 186.50000000000003 1242.9350000000002 364.00000000000006 33717.30000000001 120.50000000000001 233.37500000000003 533.12000000000012 8.5000000000000018 10.500000000000002 35.500000000000007 345.50000000000006 267.54000000000002 36.500000000000007 3304.8750000000005 775.23000000000013 43.500000000000007 53.500000000000007 275.50000000000006 275.50000000000006 67.500000000000014 99.500000000000014 194.50000000000003 211.50000000000003 1186.6850000000002 803.30000000000007 678.78500000000008 1848.4350000000002
decision_type=2 2 2 2 2 2 2 2 2 2 2 2 2 2 2 2 2 2 2 2 2 2 2 2 2 2 2 2 2 2
left_child=2 4 8 6 7 9 -3 17 22 13 20 16 -13 -4 -15 -10 -12 -2 -17 27 24 25 -1 -24 -6 26 28 -20 -11 -23
right_child=1 3 5 -5 10 -7 -8 -9 15 21 11 12 -14 14 -16 18 -18 -19 19 -21 -22 29 23 -25 -26 -27 -28 -29 -30 -31
leaf_value=-0.0042230204328314053 -0.031945111936536333 0.080990370725200128 -0.039642793079294587 -0.033873631452259266 0.025059430494124568 -0.04778432115588499 0.15913531449106005 -0.04859817880723212 0.020203043549025263 -0.021159120684578307 0.054860126356092789 0.068435634946217766 -0.0054939308627085254 -0.051518529653549194 0.057147220134735111 -0.039308016782715206 0.11297961312990923 0.023896450396965852 0.015384775772690774 -0.0021468861395096683 -0.0040572468785272124 -0.011797040680071692 -0.081207863010209186 -0.025724305585026742 0.063818291995836343 -0.048255157211552498 -0.060323488170450384 0.085820073783397677 0.053057345100071124 0.031401817997296654
leaf_weight=77 29 469 514 38 363 736 27 72 220 21 104 64 66 26 25 42 26 88 32 498 69 286 29 64 46 92 22 20 23 36
leaf_count=77 29 469 514 38 363 736 27 72 220 21 104 64 66 26 25 42 26 88 32 498 69 286 29 64 46 92 22 20 23 36
internal_value=3.03551e-10 0.0431785 -0.0228316 0.0767677 0.0238294 -0.0351996 0.0852442 -0.0122888 -0.000400467 -0.0263362 0.0330792 0.0486931 0.0309022 -0.0359065 0.00174899 0.00484396 0.066484 0.0100554 -0.000863804 0.00207194 0.0245863 -0.015071 -0.0254503 -0.0430256 0.0294186 -0.0315862 -0.0083506 0.0424753 0.0176359 -0.00696735
internal_weight=4224 1461 2763 534 927 1781 496 189 982 1045 738 260 130 565 51 812 130 117 592 550 478 480 170 93 409 158 66 52 44 322
internal_count=4224 1461 2763 534 927 1781 496 189 982 1045 738 260 130 565 51 812 130 117 592 550 478 480 170 93 409 158 66 52 44 322
is_linear=0
shrinkage=0.05


Tree=17
num_leaves=31
num_cat=0
split_feature=2 0 0 2 2 0 2 2 0 0 0 0 2 0 0 0 2 0 0 0 2 0 0 2 1 0 2 2 2 0
split_gain=1504.45 420.172 205.649 128.469 118.569 51.3061 50.9571 49.5423 48.466 37.8075 37.4979 33.6135 32.2262 45.0821 31.2429 59.2692 31.1058 39.2172 35.6204 65.922 29.9671 31.281 52.8449 31.834 29.1767 27.3133 26.0051 25.739 74.9777 39.2832
threshold=2312.9250000000006 120.50000000000001 204.50000000000003 580.93000000000018 4198.8450000000003 406.50000000000006 16807.575000000004 845.07500000000016 319.50000000000006 370.50000000000006 53.500000000000007 296.50000000000006 1684.0450000000003 267.50000000000006 5.5000000000000009 9.5000000000000018 775.23000000000013 327.50000000000006 360.50000000000006 345.50000000000006 824.43500000000006 211.50000000000003 186.50000000000003 1488.3950000000002 4.5000000000000009 297.50000000000006 1351.7200000000003 997.80500000000018 1079.0300000000002 65.500000000000014
decision_type=2 2 2 2 2 2 2 2 2 2 2 2 2 2 2 2 2 2 2 2 2 2 2 2 2 2 2 2 2 2
left_child=1 7 4 9 10 11 -6 -1 12 -3 -2 -4 20 24 -9 -16 -10 -18 19 26 25 22 -22 -23 -14 -5 -19 29 -29 -17
right_child=2 3 5 8 6 -7 -8 14 16 -11 -12 -13 13 -15 15 27 17 18 -20 -21 21 23 -24 -25 -26 -27 -28 28 -30 -31
leaf_value=-0.0010743132794144318 0.055643044864114422 -0.031402833102266096 -0.016527556158878184 -0.0026887143083981109 0.072535327960543586 -0.072702192515134809 0.11838263575459872 -0.018745009665903839 -0.0063431299601991974 -0.048496001756617002 0.023659324636797846 0.043945781290531165 -0.050183066299983439 0.074164533615112313 0.10455535121939399 0.077121868795818754 -0.10730630040168763 -0.078679581642150886 -0.051481056424368801 0.052071128836993524 -0.016801961558930417 -0.026072447790819055 0.069282589175484396 -0.091722509690693454 0.018925194575318272 0.053114611368912913 -0.0041434125466780231 -0.060828007062276201 0.021630776879542013 0.0064936874594007229
leaf_weight=538 211 766 54 140 414 24 71 46 96 560 162 40 21 28 22 45 20 25 113 29 94 153 22 21 56 26 22 30 340 35
leaf_count=538 211 766 54 140 414 24 71 46 96 560 162 40 21 28 22 45 20 25 113 29 94 153 22 21 56 26 22 30 340 35
internal_value=4.94104e-11 -0.0163574 0.0544352 -0.0288395 0.0629467 -0.00745347 0.079247 0.00955242 -0.0138612 -0.0386217 0.041752 0.00920578 -0.00513956 0.019834 0.0205894 0.0244229 -0.0299033 -0.0407252 -0.0336796 -0.0072116 -0.0108901 -0.0205877 -0.000475581 -0.0339957 7.74871e-05 0.00605157 -0.0437903 0.0205053 0.0149449 0.046222
internal_weight=4224 3248 976 2192 858 118 485 1056 866 1326 373 94 561 105 518 472 305 209 189 76 456 290 116 174 77 166 47 450 370 80
internal_count=4224 3248 976 2192 858 118 485 1056 866 1326 373 94 561 105 518 472 305 209 189 76 456 290 116 174 77 166 47 450 370 80
is_linear=0
shrinkage=0.05


Tree=18
num_leaves=31
num_cat=0
split_feature=1 2 0 0 2 0 2 0 2 2 0 1 0 0 0 0 2 0 2 0 1 2 0 2 2 0 0 2 2 2
split_gain=1365.19 310.309 250.333 151.655 74.2019 66.5972 64.3099 45.5735 44.9133 44.7265 37.7624 31.6811 28.9244 28.4529 25.232 25.711 26.6112 39.1519 38.2442 35.5047 47.7838 24.1113 28.1097 24.8859 49.4322 28.3116 23.5753 29.8364 23.335 51.6834
threshold=4.5000000000000009 2437.0200000000004 171.50000000000003 94.500000000000014 16807.575000000004 491.50000000000006 1094.5900000000004 92.500000000000014 204.05500000000004 261.80000000000001 319.50000000000006 12.500000000000002 277.50000000000006 38.500000000000007 5.5000000000000009 17.500000000000004 1655.0900000000004 78.500000000000014 1848.4350000000002 56.500000000000007 7.5000000000000009 292.55000000000007 297.50000000000006 580.93000000000018 795.3900000000001 254.50000000000003 67.500000000000014 156.15500000000003 4914.3550000000005 8192.5550000000021
decision_type=2 2 2 2 2 2 2 2 2 2 2 2 2 2 2 2 2 2 2 2 2 2 2 2 2 2 2 2 2 2
left_child=2 6 8 4 11 9 7 -2 26 -4 28 13 14 -3 -8 -16 -17 19 -19 20 -18 22 -11 25 -25 -23 27 -1 -5 -30
right_child=1 3 5 10 -6 -7 12 -9 -10 21 -12 -13 -14 -15 15 16 17 18 -20 -21 -22 23 -24 24 -26 -27 -28 -29 29 -31
leaf_value=0.025776527268545971 0.011238421614353475 0.040110072648594147 -0.040476991520371548 0.014909029928120703 0.11943179282589236 -0.051155561843172173 -0.015308949351310731 -0.042986537109721792 0.003848888870122193 0.058707206249237066 -0.037323654174804689 0.076721436031643428 -0.0094142829454862166 0.071204911102540791 0.067146634984584092 0.042934987344245876 -0.025961617105885557 -0.010254516857010978 0.052910066121502931 -0.066936037486249753 0.06801825165748597 -0.059093410078483288 -0.019500634626105982 0.005091880366608903 -0.026815625476431917 -0.025770478645960489 -0.045622648612449052 -0.047532789085222328 0.092636517201151181 -0.002628154183427493
leaf_weight=35 78 173 430 110 69 357 33 77 848 20 25 279 65 128 42 131 38 35 76 22 21 79 27 185 353 330 76 23 35 24
leaf_count=35 78 173 430 110 69 357 33 77 848 20 25 279 65 128 42 131 38 35 76 22 21 79 27 185 353 330 76 23 35 24
internal_value=-4.24232e-10 0.0390904 -0.02067 0.0588202 0.070415 -0.0318454 0.0121774 -0.0156991 -0.000401771 -0.0270042 0.0200315 0.0645837 0.0215098 0.0533331 0.0265602 0.0303456 0.0255603 0.0137058 0.0329933 -0.0127253 0.00748884 -0.021176 0.0137793 -0.0229108 -0.0158437 -0.0322069 -0.0273015 -0.00329441 0.028516 0.0538848
internal_weight=4224 1461 2763 843 649 1781 618 155 982 1424 194 580 463 301 398 365 323 192 111 81 59 994 47 947 538 409 134 58 169 59
internal_count=4224 1461 2763 843 649 1781 618 155 982 1424 194 580 463 301 398 365 323 192 111 81 59 994 47 947 538 409 134 58 169 59
is_linear=0
shrinkage=0.05


Tree=19
num_leaves=31
num_cat=0
split_feature=1 2 0 0 0 2 2 0 2 0 0 2 1 1 0 2 1 0 0 2 0 0 1 2 2 0 2 1 2 1
split_gain=1232.09 280.054 227.358 136.918 72.4363 69.3366 58.0397 41.4885 38.4872 38.0496 35.1797 29.6346 28.8697 29.1209 26.1043 26.0654 24.8292 22.7719 23.2042 24.0166 35.3489 38.827 43.9434 27.9638 24.365 21.8881 25.6955 41.0525 23.3364 32.4646
threshold=4.5000000000000009 2437.0200000000004 127.50000000000001 113.50000000000001 364.00000000000006 9914.9550000000017 1094.5900000000004 81.500000000000014 186.10000000000005 47.500000000000007 349.50000000000006 216.09000000000003 11.500000000000002 8.5000000000000018 277.50000000000006 795.3900000000001 12.500000000000002 5.5000000000000009 17.500000000000004 1655.0900000000004 82.500000000000014 57.500000000000007 7.5000000000000009 1848.4350000000002 2037.7600000000002 29.500000000000004 2742.8800000000006 10.500000000000002 2789.6000000000004 6.5000000000000009
decision_type=2 2 2 2 2 2 2 2 2 2 2 2 2 2 2 2 2 2 2 2 2 2 2 2 2 2 2 2 2 2
left_child=2 6 11 5 8 16 7 15 -4 -7 -10 -1 13 -5 17 -2 25 -8 -19 -20 21 22 -21 -22 -25 28 -27 -28 -3 -30
right_child=1 3 4 12 -6 9 14 -9 10 -11 -12 -13 -14 -15 -16 -17 -18 18 19 20 23 -23 -24 24 -26 26 27 -29 29 -31
leaf_value=-0.020078377312972767 -0.02917233320573966 0.082461961060762409 -0.041780085324012131 0.0067642366886138923 -0.041163354415608491 0.10611777750291224 -0.014543502439152112 -0.038696689690862388 -0.019673999604897772 0.034893970597874038 0.021775579673272594 0.0069802862040963046 -0.025239617115742453 0.058765009755180002 -0.008943569935285129 0.034871483990486639 0.070004611193964436 0.063789301543008714 0.040788239109834645 -0.022880264520645142 -0.0058720547486754027 -0.070325518505913884 0.065097139911218127 0.08571582330124719 0.026796741847028124 0.016812328100204468 0.081762363592616655 0.022069217029370761 -0.032227287122181487 0.036671393040729604
leaf_weight=119 24 20 194 75 736 127 33 84 984 22 54 676 37 42 65 47 220 42 131 40 34 21 22 28 47 30 119 38 21 92
leaf_count=119 24 20 194 75 736 127 33 84 984 22 54 676 37 42 65 47 220 42 131 40 34 21 22 28 47 30 119 38 21 92
internal_value=-1.65054e-10 0.0371359 -0.0196365 0.0558792 -0.0287525 0.0654058 0.0115686 -0.0149142 -0.0213382 0.0956015 -0.0175177 0.00293 0.013257 0.0254312 0.0204343 0.0132229 0.057074 0.0252322 0.0288283 0.0242823 0.0130205 -0.0115652 0.00833752 0.0317417 0.0487932 0.0481842 0.0592124 0.0673143 0.0326785 0.0238672
internal_weight=4224 1461 2763 843 1968 689 618 155 1232 149 1038 795 154 117 463 71 540 398 365 323 192 83 62 109 75 320 187 157 133 113
internal_count=4224 1461 2763 843 1968 689 618 155 1232 149 1038 795 154 117 463 71 540 398 365 323 192 83 62 109 75 320 187 157 133 113
is_linear=0
shrinkage=0.05


Tree=20
num_leaves=31
num_cat=0
split_feature=2 0 0 2 2 0 1 2 0 0 1 0 1 0 1 2 0 2 0 0 0 2 2 2 0 2 2 2 2 1
split_gain=1114.63 284.603 181.634 110.277 92.5084 43.1105 37.4614 32.957 28.3965 31.0835 29.0771 27.228 26.7691 30.1351 33.0678 55.5854 26.0407 38.5003 25.4305 24.6283 21.3417 20 19.764 18.5398 17.8288 17.0865 42.3951 20.4783 25.3816 17.9541
threshold=2102.4400000000001 120.50000000000001 319.50000000000006 4198.8450000000003 450.01000000000005 186.50000000000003 38.500000000000007 233.37500000000003 211.50000000000003 192.50000000000003 1.5000000000000002 232.50000000000003 7.5000000000000009 58.500000000000007 10.500000000000002 2690.8050000000007 281.50000000000006 1508.6100000000004 283.50000000000006 491.50000000000006 542.50000000000011 3658.6650000000004 665.7650000000001 91.370000000000019 270.50000000000006 1526.5900000000004 1820.2100000000003 1297.2900000000002 918.12500000000011 1.5000000000000002
decision_type=2 2 2 2 2 2 2 2 2 2 2 2 2 2 2 2 2 2 2 2 2 2 2 2 2 2 2 2 2 2
left_child=1 7 3 12 19 6 -5 -1 9 10 -6 -10 -2 -14 15 -15 17 22 -18 23 25 -4 -13 -3 -24 27 -27 28 -20 -30
right_child=2 4 21 5 8 -7 -8 -9 11 -11 -12 16 13 14 -16 -17 18 -19 20 -21 -22 -23 24 -25 -26 26 -28 -29 29 -31
leaf_value=-0.017158354734017597 0.019995348624006631 -0.053874666186479431 -0.015258450233019317 0.064746000391655956 -0.065055974423885346 0.0053639526878084456 0.11315863640470938 0.010480642710178751 -0.054541947327408136 0.040292956531047822 -0.0020137192211418511 0.031303948705846615 0.056392670703304559 -0.010793610165516537 -0.0089629375554145657 0.088590990751981735 -0.072259466026140293 0.067021070491699947 -0.0088050499705017594 -0.047449378430233072 -0.064743453015883773 -0.072547642230987558 0.0074957029819488529 -0.028297615922592285 -0.048482431968053186 -0.074454643381269364 0.0084043422570595373 0.0196333319641823 0.0065020376727694569 -0.044224397360699851
leaf_weight=123 229 78 39 435 20 28 44 876 51 40 214 22 167 24 47 34 23 21 305 293 24 25 25 773 33 38 26 43 21 103
leaf_count=123 229 78 39 435 20 28 44 876 51 40 214 22 167 24 47 34 23 21 305 293 24 25 25 773 33 38 26 43 21 103
internal_value=1.07794e-10 -0.0149788 0.0440422 0.0492282 -0.0252131 0.065668 0.0691931 0.00707764 -0.0141772 -0.000439187 -0.00740195 -0.0192986 0.0325914 0.0431962 0.0222075 0.0474663 -0.0166708 0.00676833 -0.0207315 -0.0349466 -0.0186151 -0.037637 -0.00904801 -0.0306419 -0.0243539 -0.0165497 -0.0407932 -0.0132625 -0.0165597 -0.0356336
internal_weight=4224 3152 1072 1008 2153 507 479 999 1009 274 234 735 501 272 105 58 684 101 583 1144 560 64 80 851 58 536 64 472 429 124
internal_count=4224 3152 1072 1008 2153 507 479 999 1009 274 234 735 501 272 105 58 684 101 583 1144 560 64 80 851 58 536 64 472 429 124
is_linear=0
shrinkage=0.05


Tree=21
num_leaves=31
num_cat=0
split_feature=1 2 0 0 2 0 2 0 2 2 2 1 1 0 2 2 2 0 2 0 0 0 0 1 2 0 2 0 0 0
split_gain=1012.28 226.316 185.709 136.864 83.5954 50.6846 44.3437 41.7791 34.8944 43.4573 33.5612 24.6642 28.4424 54.4425 22.1589 20.6416 21.234 20.3909 26.9273 20.1372 45.3238 24.7764 18.8954 23.9541 54.625 39.0544 32.6622 20.8011 20.5085 18.3639
threshold=4.5000000000000009 3883.3750000000005 171.50000000000003 186.50000000000003 1242.9350000000002 491.50000000000006 33717.30000000001 120.50000000000001 580.93000000000018 795.3900000000001 204.05500000000004 8.5000000000000018 10.500000000000002 35.500000000000007 3304.8750000000005 775.23000000000013 997.80500000000018 67.500000000000014 156.15500000000003 384.50000000000006 341.50000000000006 273.50000000000006 21.500000000000004 1.5000000000000002 325.49000000000007 164.50000000000003 267.54000000000002 108.50000000000001 17.500000000000004 4.5000000000000009
decision_type=2 2 2 2 2 2 2 2 2 2 2 2 2 2 2 2 2 2 2 2 2 2 2 2 2 2 2 2 2 2
left_child=2 4 10 6 7 8 29 15 -4 19 17 -6 14 -14 -13 -2 -17 18 -1 20 21 -10 28 24 26 -25 -24 -26 -12 -3
right_child=1 3 5 -5 11 -7 -8 -9 9 -11 22 12 13 -15 -16 16 -18 -19 -20 -21 -22 -23 23 25 27 -27 -28 -29 -30 -31
leaf_value=0.026349532774516515 -0.029088014775309069 0.089089700352337403 -0.029300088208362159 -0.03186321729107907 0.019581830320747329 -0.044270301249180855 0.12890416659690715 -0.040912441909313202 -0.019119045656660331 -0.02344417111056385 0.012006864010814638 0.044932822704028624 0.055038161203265192 -0.0096833374689925811 0.096540271318875825 0.041463951036638143 -0.0079781923013237804 -0.040633750746124672 -0.043294310051461928 0.041876640283700195 -0.06587441485861073 0.026628286723630976 -0.013370364327584545 0.0016806809166222535 -0.023444520061214766 0.066862244158983231 0.065269837690436316 -0.074560910989256476 0.065377343534713694 0.059255061707936409
leaf_weight=35 29 59 886 38 478 357 27 72 46 353 126 104 64 66 26 49 39 76 23 33 23 83 31 541 48 24 23 34 21 410
leaf_count=35 29 59 886 38 478 357 27 72 46 353 126 104 64 66 26 49 39 76 23 33 23 83 31 541 48 24 23 34 21 410
internal_value=6.28819e-11 0.0336607 -0.0177989 0.0595889 0.0187248 -0.0274243 0.0665953 -0.0109453 -0.023201 -0.0131567 -0.000341805 0.0263232 0.0387169 0.0221796 0.0552543 0.007496 0.0195521 -0.0235948 -0.00126785 0.00647292 -0.00121342 0.0103153 0.0033326 -8.52222e-05 -0.0189241 0.00444946 0.0201245 -0.0446391 0.0196312 0.0630082
internal_weight=4224 1461 2763 534 927 1781 496 189 1424 538 982 738 260 130 130 117 88 134 58 185 152 129 848 701 136 565 54 82 147 469
internal_count=4224 1461 2763 534 927 1781 496 189 1424 538 982 738 260 130 130 117 88 134 58 185 152 129 848 701 136 565 54 82 147 469
is_linear=0
shrinkage=0.05


Tree=22
num_leaves=31
num_cat=0
split_feature=1 2 0 0 0 2 2 0 1 0 1 2 0 2 2 1 1 0 0 0 2 1 2 0 0 1 2 2 2 1
split_gain=913.582 205.749 167.815 107.621 55.9611 53.133 46.3844 33.0789 31.2067 30.402 27.3552 24.7458 23.8927 22.7838 21.8842 21.115 22.5631 34.1012 20.8638 21.7778 20.8553 31.288 26.7788 23.542 34.9474 19.8662 42.9642 29.5215 25.1474 19.8565
threshold=4.5000000000000009 2437.0200000000004 127.50000000000001 79.500000000000014 364.00000000000006 9914.9550000000017 1094.5900000000004 78.500000000000014 1.5000000000000002 319.50000000000006 15.500000000000002 4914.3550000000005 70.500000000000014 795.3900000000001 216.09000000000003 12.500000000000002 10.500000000000002 29.500000000000004 277.50000000000006 5.5000000000000009 1704.4350000000002 3.5000000000000004 1463.2200000000003 346.50000000000006 333.50000000000006 10.500000000000002 3750.7650000000008 3141.2850000000003 2627.3800000000006 6.5000000000000009
decision_type=2 2 2 2 2 2 2 2 2 2 2 2 2 2 2 2 2 2 2 2 2 2 2 2 2 2 2 2 2 2
left_child=2 6 14 5 8 12 7 13 -4 10 11 25 15 -2 -1 16 17 29 19 -8 22 -22 23 24 -10 26 27 28 -5 -3
right_child=1 3 4 9 -6 -7 18 -9 20 -11 -12 -13 -14 -15 -16 -17 -18 -19 -20 -21 21 -23 -24 -25 -26 -27 -28 -29 -30 -31
leaf_value=-0.017293354342965521 -0.027166716506083807 -0.011649486651787392 -0.02745865233739217 -0.00497795587236231 -0.035649388469755648 0.085484316770372715 -0.016619646549224855 -0.034301397758860923 -0.011406508550465665 -0.033031548976898195 -0.021589827482347137 0.058929948748673425 0.095605210121721032 0.033158076173729366 0.0059592573225674544 0.060333332288141694 0.0078736493782121299 0.067981725291389489 -0.0082752184684459981 0.02579496385351028 0.04381272673606873 -0.020438981884055671 -0.066148091107606888 0.028124846781001373 -0.061029869318008426 -0.017487746690000808 0.088175542404254292 -0.035743029804333401 0.069029983629783007 0.03880549545089404
leaf_weight=119 24 26 525 22 736 145 33 86 535 25 27 59 28 45 676 193 49 92 65 365 40 36 24 34 38 28 24 23 24 78
leaf_count=119 24 26 525 22 736 145 33 86 535 25 27 59 28 45 676 193 49 92 65 365 40 36 24 34 38 28 24 23 24 78
internal_value=7.13926e-11 0.0319777 -0.0169089 0.0480432 -0.0247408 0.0590517 0.0100631 -0.0136117 -0.018224 0.019051 0.0253411 0.0323808 0.0508269 0.0121755 0.00247868 0.0479644 0.0382207 0.0458075 0.0179888 0.0222782 -0.0113666 0.0133777 -0.014347 -0.0122988 -0.0146974 0.0194353 0.0305519 0.0105089 0.0336349 0.0261917
internal_weight=4224 1461 2763 843 1968 611 618 155 1232 232 207 180 466 69 795 438 245 196 463 398 707 76 631 607 573 121 93 69 46 104
internal_count=4224 1461 2763 843 1968 611 618 155 1232 232 207 180 466 69 795 438 245 196 463 398 707 76 631 607 573 121 93 69 46 104
is_linear=0
shrinkage=0.05


Tree=23
num_leaves=31
num_cat=0
split_feature=1 2 0 0 2 0 2 2 0 2 0 1 2 0 2 0 2 1 1 0 0 0 0 2 0 2 0 1 2 1
split_gain=824.508 185.688 152.203 97.128 47.9525 42.8914 41.8619 31.2213 29.8537 27.8856 27.4378 24.6881 23.8266 23.444 22.3331 21.5631 20.5624 19.0563 20.3632 30.7763 18.8296 19.6545 19.6785 22.9378 32.819 31.4154 28.4896 37.8185 19.5395 18.4217
threshold=4.5000000000000009 2437.0200000000004 171.50000000000003 79.500000000000014 9914.9550000000017 491.50000000000006 1094.5900000000004 261.80000000000001 78.500000000000014 193.40000000000003 319.50000000000006 15.500000000000002 282.53000000000003 63.500000000000007 4914.3550000000005 70.500000000000014 795.3900000000001 12.500000000000002 10.500000000000002 29.500000000000004 277.50000000000006 5.5000000000000009 17.500000000000004 1655.0900000000004 78.500000000000014 1848.4350000000002 56.500000000000007 7.5000000000000009 2037.7600000000002 10.500000000000002
decision_type=2 2 2 2 2 2 2 2 2 2 2 2 2 2 2 2 2 2 2 2 2 2 2 2 2 2 2 2 2 2
left_child=2 6 9 4 15 7 8 -4 16 13 11 14 -9 -1 -5 17 -2 18 19 -3 21 -8 -23 -24 26 -26 27 -25 -27 -16
right_child=1 3 5 10 -6 -7 20 12 -10 -11 -12 -13 -14 -15 29 -17 -18 -19 -20 -21 -22 22 23 24 25 28 -28 -29 -30 -31
leaf_value=0.0043695445060729981 -0.025808380916714668 0.024882161545638853 -0.032148729867713395 0.018463532712833942 0.081210100640510693 -0.040274316423079548 -0.015788663156104811 0.025751754009362422 -0.032586328373398893 0.0029731058915989979 -0.031379971504211422 -0.020510335680511263 -0.017457373972117714 -0.039714291299644273 0.029430845457940332 0.09082495078577528 0.031500171522299447 0.057316665712338656 0.0074799673289668803 0.064582639066097527 -0.0078614573295299819 0.056700804829597475 0.036449746522725424 -0.026537743995064186 -0.012225295560700553 0.078217040428093507 -0.063447218862446877 0.057070086967377434 0.025659640630086262 0.085380978084036288
leaf_weight=50 24 104 430 121 145 357 33 33 86 856 25 27 961 76 31 28 45 193 49 92 65 42 131 38 35 28 22 21 48 28
leaf_count=50 24 104 430 121 145 357 33 33 86 856 25 27 961 76 31 28 45 193 49 92 65 42 131 38 35 28 22 21 48 28
internal_value=9.77955e-11 0.0303788 -0.0160635 0.045641 0.0560991 -0.0247774 0.00955998 -0.0208923 -0.0129311 -0.000259501 0.0180984 0.0240741 -0.0160229 -0.0222207 0.0307617 0.0482856 0.0115668 0.0455662 0.0363097 0.0435171 0.0170894 0.0211643 0.0245052 0.0203188 0.00931278 0.0269717 -0.0148864 0.00322098 0.0450229 0.0559835
internal_weight=4224 1461 2763 843 611 1781 618 1424 155 982 232 207 994 126 180 466 69 438 245 196 463 398 365 323 192 111 81 59 76 59
internal_count=4224 1461 2763 843 611 1781 618 1424 155 982 232 207 994 126 180 466 69 438 245 196 463 398 365 323 192 111 81 59 76 59
is_linear=0
shrinkage=0.05


Tree=24
num_leaves=31
num_cat=0
split_feature=2 0 0 2 2 0 2 1 0 0 2 0 0 2 1 2 0 0 2 0 1 0 0 0 2 2 0 0 0 2
split_gain=746.184 193.098 128.332 73.2671 64.783 39.1697 26.048 38.6992 30.4146 31.9224 23.8607 23.8087 28.1594 27.8088 23.0798 31.281 37.4307 37.3553 23.8299 24.7655 22.7783 37.9585 41.3896 21.3824 21.2572 22.0353 23.5059 43.4253 33.2998 19.8995
threshold=2102.4400000000001 120.50000000000001 319.50000000000006 5460.0950000000012 580.93000000000018 16.500000000000004 783.8850000000001 2.5000000000000004 211.50000000000003 139.00000000000003 623.3950000000001 112.50000000000001 30.500000000000004 1684.0450000000003 3.5000000000000004 1146.3100000000002 63.500000000000007 52.500000000000007 720.9000000000002 78.500000000000014 4.5000000000000009 73.500000000000014 194.50000000000003 533.50000000000011 1820.2100000000003 1526.5900000000004 341.50000000000006 322.50000000000006 365.50000000000006 1463.2200000000003
decision_type=2 2 2 2 2 2 2 2 2 2 2 2 2 2 2 2 2 2 2 2 2 2 2 2 2 2 2 2 2 2
left_child=1 10 3 20 23 -5 -6 -8 9 -9 -1 12 -12 14 18 16 -16 -17 -14 -20 21 -2 -23 -3 25 26 27 -10 -28 -11
right_child=2 4 -4 5 6 -7 7 8 24 29 11 -13 13 -15 15 17 -18 -19 19 -21 -22 22 -24 -25 -26 -27 28 -29 -30 -31
leaf_value=-0.0034653878826094737 -0.039258583535750707 -0.024718777776194824 -0.032621038611978292 0.078869201157057117 0.0041744992633660633 0.045315024595182503 -0.036809988021850586 -0.031813235626076207 -0.014046387044528059 0.0046493835368398894 0.025273919653108452 0.051121154789989055 0.031677755161567976 -0.029845755383119746 0.037713096016331722 -0.011057037344345681 -0.025707390308380131 0.059855555754441486 -0.042073382515656323 0.011360445022583009 0.033712234569766596 0.071951560888971602 -0.020907650675092426 -0.041849338734915503 0.021467060782015324 -0.052302132422725356 0.06463487803936005 -0.089963564547625455 -0.015442996894991077 0.047523328304290777
leaf_weight=404 30 1108 64 141 240 227 155 33 131 59 191 37 27 59 38 26 60 65 57 35 561 28 21 218 32 48 20 22 37 50
leaf_count=404 30 1108 64 141 240 227 155 33 131 59 191 37 27 59 38 26 60 65 57 35 561 28 21 218 32 48 20 22 37 50
internal_value=-3.015e-10 -0.0122556 0.0360352 0.0403943 -0.0206856 0.0581714 -0.0097032 -0.0153772 -0.00768723 0.0112721 0.00591231 0.0122797 0.00970418 0.00160113 0.00762505 0.0184856 -0.00111577 0.0395948 -0.0096241 -0.0217453 0.0301725 0.00503577 0.0321548 -0.0275351 -0.0169708 -0.0217383 -0.0147522 -0.0249626 0.0126545 0.0243163
internal_weight=4224 3152 1072 1008 2153 368 827 587 432 142 999 595 558 367 308 189 98 91 119 92 640 79 49 1326 290 258 210 153 57 109
internal_count=4224 3152 1072 1008 2153 368 827 587 432 142 999 595 558 367 308 189 98 91 119 92 640 79 49 1326 290 258 210 153 57 109
is_linear=0
shrinkage=0.05


Tree=25
num_leaves=31
num_cat=0
split_feature=2 0 0 2 2 0 2 0 0 1 0 0 2 0 2 0 0 0 2 0 2 2 2 1 0 2 1 2 2 2
split_gain=673.431 174.271 115.819 66.1236 58.9617 35.5409 22.4016 24.3667 20.9606 44.9884 20.5296 19.135 20.393 27.7218 17.946 33.2928 37.6811 33.1614 17.1903 17.1202 28.376 16.7139 18.4571 15.1942 28.1214 28.1448 25.4287 29.3963 23.407 18.8223
threshold=2102.4400000000001 120.50000000000001 319.50000000000006 5460.0950000000012 450.01000000000005 14.500000000000002 305.24000000000007 14.500000000000002 281.50000000000006 3.5000000000000004 139.00000000000003 319.50000000000006 1684.0450000000003 267.50000000000006 775.23000000000013 332.50000000000006 360.50000000000006 349.50000000000006 2516.7900000000004 384.50000000000006 1186.6850000000002 329.73500000000007 370.71500000000009 12.500000000000002 43.500000000000007 2394.2950000000005 15.500000000000002 3883.3750000000005 2353.3250000000003 4343.630000000001
decision_type=2 2 2 2 2 2 2 2 2 2 2 2 2 2 2 2 2 2 2 2 2 2 2 2 2 2 2 2 2 2
left_child=1 6 3 8 -3 -5 7 -1 9 -2 23 12 -6 -14 -13 -16 17 -17 -4 -18 -21 -8 -23 24 28 -26 -25 -28 -11 -30
right_child=2 4 18 5 11 -7 21 -9 -10 10 -12 14 13 -15 15 16 19 -19 -20 20 -22 22 -24 26 25 -27 27 -29 29 -31
leaf_value=0.034189270780636716 -0.028877018479739919 -0.027422124006739865 0.0060906259786515015 0.077600869614010068 -0.008980423809164112 0.044454073095543972 0.052085015042261644 -0.018216612264020556 0.079044389724731448 -0.021445030499907102 0.0072443097111690481 -0.0082656772477286197 0.00045024997602074833 0.06734474500020346 -0.07694925256073476 -0.016093586194209565 -0.080849332213401792 0.063095523715019239 -0.049099121121473091 -0.055160028503296224 0.0033776772988809121 -0.02813932813484879 0.0095087915992087078 0.075476378097005623 0.083036091592576772 0.033837785379381369 -0.012203677869043672 0.057567168254819182 0.031923778015222865 -0.011802628537019095
leaf_weight=26 34 1144 21 120 559 248 22 151 20 34 83 175 59 21 32 39 20 20 43 47 37 34 766 53 36 151 26 36 137 30
leaf_count=26 34 1144 21 120 559 248 22 151 20 34 83 175 59 21 32 39 20 20 43 47 37 34 766 53 36 151 26 36 137 30
internal_value=4.35896e-11 -0.0116428 0.0342334 0.0383746 -0.0196513 0.0552628 0.0056167 -0.0105186 0.0286639 0.0270387 0.0302829 -0.0108408 -0.00560133 0.0180101 -0.0198896 -0.0303213 -0.0211673 0.0107502 -0.03099 -0.0392744 -0.0293756 0.00909108 0.00790875 0.0340845 0.0293535 0.0433091 0.0500467 0.0283084 0.0163699 0.0240687
internal_weight=4224 3152 1072 1008 2153 368 999 177 640 620 586 1009 639 80 370 195 163 59 64 104 84 822 800 503 388 187 115 62 201 167
internal_count=4224 3152 1072 1008 2153 368 999 177 640 620 586 1009 639 80 370 195 163 59 64 104 84 822 800 503 388 187 115 62 201 167
is_linear=0
shrinkage=0.05


Tree=26
num_leaves=31
num_cat=0
split_feature=2 0 0 2 2 0 2 1 0 0 0 2 2 0 2 0 0 1 1 0 2 2 2 0 0 0 2 1 2 0
split_gain=609.076 176.329 91.6744 55.3702 50.8484 38.8028 24.8754 24.4481 24.0793 23.7104 46.6198 26.1539 59.0988 30.6187 32.4218 22.7543 22.6908 21.6884 38.5975 21.9016 51.7349 41.3231 21.4407 32.3127 23.5688 48.8313 20.9618 20.901 20.7967 34.7276
threshold=2312.9250000000006 120.50000000000001 329.50000000000006 580.93000000000018 6951.0750000000016 70.500000000000014 845.07500000000016 8.5000000000000018 319.50000000000006 5.5000000000000009 9.5000000000000018 997.80500000000018 1079.0300000000002 65.500000000000014 906.30500000000018 3.5000000000000004 2.5000000000000004 2.5000000000000004 3.5000000000000004 81.500000000000014 1887.6450000000002 2102.4400000000001 775.23000000000013 327.50000000000006 360.50000000000006 341.50000000000006 33717.30000000001 6.5000000000000009 1264.4250000000004 31.500000000000004
decision_type=2 2 2 2 2 2 2 2 2 2 2 2 2 2 2 2 2 2 2 2 2 2 2 2 2 2 2 2 2 2
left_child=1 6 4 -3 7 26 -1 -2 -5 16 -11 13 -13 14 -12 -9 -8 -14 -19 20 28 -22 -10 -24 25 -25 -6 -21 -20 -30
right_child=2 3 -4 8 5 -7 9 15 22 10 11 12 17 -15 -16 -17 -18 18 19 27 21 -23 23 24 -26 -27 -28 -29 29 -31
leaf_value=-0.0011532330961697163 0.019475282131295121 -0.024915942338437157 -0.034266045041706251 -0.0025129966530782867 0.059850717303069206 0.015624370853951637 0.013553150991598765 0.083129871643527795 -0.00040760450065135956 0.088605926456776535 0.11471599012613297 -0.058814875682195025 0.054987627267837527 0.0049112999439239503 0.029305812120437626 0.035548164477126123 -0.056747101653705945 -0.036737170031196191 -0.013424105655688507 0.021141639747656885 -0.075200400820800248 0.0073835430723248113 -0.089389147758483889 -0.043273951444360949 -0.037037499235794608 0.03699443876743317 0.1069797215776311 0.072935558429786149 0.07835860550403595 0.014500430425008138
leaf_weight=538 280 1326 46 561 187 47 24 27 96 22 20 30 30 35 25 362 22 38 26 64 28 33 20 36 113 40 27 28 33 60
leaf_count=538 280 1326 46 561 187 47 24 27 96 22 20 30 30 35 25 362 22 38 26 64 28 33 20 36 113 40 27 28 33 60
internal_value=-7.69226e-11 -0.0104078 0.0346359 -0.0184939 0.038044 0.056762 0.0063768 0.0307414 -0.00866054 0.0141976 0.0175371 0.0140626 0.00845759 0.0399858 0.0672659 0.0388508 -0.0200687 0.0143934 0.0104649 0.0170593 0.00691599 -0.0305238 -0.019968 -0.0289527 -0.0225573 -0.00102743 0.0657969 0.036905 0.0261078 0.0371598
internal_weight=4224 3248 976 2192 930 261 1056 669 866 518 472 450 370 80 45 389 46 340 310 272 180 61 305 209 189 76 214 92 119 93
internal_count=4224 3248 976 2192 930 261 1056 669 866 518 472 450 370 80 45 389 46 340 310 272 180 61 305 209 189 76 214 92 119 93
is_linear=0
shrinkage=0.05


Tree=27
num_leaves=31
num_cat=0
split_feature=1 2 0 0 2 2 0 0 1 2 2 0 0 0 0 1 0 0 2 2 1 0 2 1 2 0 2 2 1 2
split_gain=549.94 125.311 104.28 72.8891 35.2874 34.236 33.0835 28.1389 24.5171 23.5144 23.2635 24.9822 24.6129 36.4885 23.0119 29.6729 38.8747 28.1777 27.1385 54.1219 22.7457 25.749 23.7298 20.7781 17.612 17.5598 30.5087 20.7205 19.0473 16.7324
threshold=4.5000000000000009 2437.0200000000004 171.50000000000003 79.500000000000014 19278.930000000004 1242.9350000000002 491.50000000000006 120.50000000000001 15.500000000000002 261.80000000000001 292.55000000000007 297.50000000000006 275.50000000000006 280.50000000000006 21.500000000000004 1.5000000000000002 164.50000000000003 18.500000000000004 325.49000000000007 241.64000000000001 1.5000000000000002 9.5000000000000018 250.76000000000002 3.5000000000000004 462.17000000000002 226.50000000000003 4914.3550000000005 3304.8750000000005 10.500000000000002 591.36500000000012
decision_type=2 2 2 2 2 2 2 2 2 2 2 2 2 2 2 2 2 2 2 2 2 2 2 2 2 2 2 2 2 2
left_child=2 5 14 4 -3 7 9 -2 25 -4 11 -11 -12 -14 17 18 -17 20 19 -16 22 -22 -1 29 -20 26 -5 -27 -28 -15
right_child=1 3 6 8 -6 -7 -8 -9 -10 10 12 -13 13 23 15 16 -18 -19 24 -21 21 -23 -24 -25 -26 27 28 -29 -30 -31
leaf_value=0.0013032119382511487 0.0051119637317382375 0.04262840495738595 -0.026688452473906582 0.012135572456999829 0.084612197480323226 0.015519002109488129 -0.033941965610707177 -0.03461592180861367 -0.02868862589200338 0.063996367454528816 -0.028271570889022064 -0.0097324684814170566 0.05686046987771988 -0.016419035743494504 -0.022664207376931846 -0.00018095726510493189 0.064805994182825094 0.069561759314753793 -0.068634659222194125 0.048418376105172301 0.014072988385503943 -0.038979438883917673 0.073938602468241826 -0.033765800847955378 -0.021785832719599947 0.031068332244952521 0.032383039500564335 -0.030390461254864932 0.093791566076486019 0.00034101769276910634
leaf_weight=22 117 556 430 95 55 429 357 72 30 20 239 27 20 305 114 559 24 22 35 35 66 35 23 92 47 24 28 32 23 291
leaf_count=22 117 556 430 95 55 429 357 72 30 20 239 27 20 305 114 559 24 22 35 35 66 35 23 92 47 24 28 32 23 291
internal_value=8.29962e-11 0.0248102 -0.013119 0.037348 0.0464076 0.00770778 -0.0203318 -0.0100225 0.0134883 -0.0169197 -0.0126937 0.0216415 -0.0143978 -0.00971443 -3.75569e-05 -0.00351478 0.00249432 0.0168104 -0.0186806 -0.00596696 0.00886161 -0.00431152 0.038428 -0.0116497 -0.0417823 0.0197523 0.0288823 -0.00405098 0.0600771 -0.00823586
internal_weight=4224 1461 2763 843 611 618 1781 189 232 1424 994 47 947 708 982 814 583 168 231 149 146 101 45 688 82 202 146 56 51 596
internal_count=4224 1461 2763 843 611 618 1781 189 232 1424 994 47 947 708 982 814 583 168 231 149 146 101 45 688 82 202 146 56 51 596
is_linear=0
shrinkage=0.05


Tree=28
num_leaves=31
num_cat=0
split_feature=2 0 0 2 2 0 1 2 0 1 0 0 2 0 0 2 0 0 2 0 2 0 1 2 2 0 0 0 0 2
split_gain=497.145 145.712 77.4318 45.3883 42.6695 32.7403 25.7074 21.6577 28.7113 20.3545 21.2077 20.2859 19.8725 47.2277 37.443 28.3531 25.3748 17.3949 16.975 15.3621 44.4978 19.6395 22.9146 20.1238 46.1027 35.0762 25.397 15.5098 27.4908 18.6744
threshold=2312.9250000000006 120.50000000000001 329.50000000000006 450.01000000000005 6951.0750000000016 66.500000000000014 11.500000000000002 623.3950000000001 112.50000000000001 8.5000000000000018 18.500000000000004 3.5000000000000004 497.56500000000005 73.500000000000014 66.500000000000014 233.37500000000003 21.500000000000004 542.50000000000011 33717.30000000001 97.500000000000014 1036.7200000000003 89.500000000000014 5.5000000000000009 1488.3950000000002 1146.3100000000002 65.500000000000014 79.500000000000014 31.500000000000004 46.500000000000007 2148.2700000000004
decision_type=2 2 2 2 2 2 2 2 2 2 2 2 2 2 2 2 2 2 2 2 2 2 2 2 2 2 2 2 2 2
left_child=1 7 4 -3 9 18 -7 12 19 10 -2 -11 13 15 16 -1 -14 -5 -6 21 -21 23 -23 24 25 -9 -27 29 -29 -25
right_child=2 3 -4 17 5 6 -8 8 -10 11 -12 -13 14 -15 -16 -17 -18 -19 -20 20 -22 22 -24 27 -26 26 -28 28 -30 -31
leaf_value=-0.0075709253549575807 -0.016251654587686064 -0.023639929505599129 -0.032031927678896031 -0.0082294083527222877 0.05491557647729968 0.057121160355481239 -0.014037711024284364 0.015073114776325797 0.052532578017562628 0.076942363271006842 0.023072580579513065 0.032015575398819635 -0.012064866224924725 -0.025830833234039008 0.021384476763861522 0.029323963081314616 -0.081567986258145042 -0.050443162202835082 0.097400123446627906 -0.065403123855590814 0.026372662399496351 0.068787855307261156 -0.00030541509389877321 0.022335156963931194 0.045184190904623583 -0.062001110911369332 0.0055150981132800767 -0.061463894225932937 -0.0019534938145374906 -0.029416642759157265
leaf_weight=84 40 1144 46 1023 182 22 30 167 40 27 240 362 24 102 28 137 29 25 27 25 28 30 20 72 95 30 26 27 69 23
leaf_count=84 40 1144 46 1023 182 22 30 167 40 27 240 362 24 102 28 137 29 25 27 25 28 30 20 72 95 30 26 27 69 23
internal_value=-4.32368e-11 -0.009403 0.0312919 -0.0167536 0.0344241 0.0515708 0.016068 0.00585502 0.0114915 0.0277346 0.0174548 0.0351339 -0.00324154 0.0023117 -0.025386 0.0153006 -0.0500949 -0.00923642 0.060404 0.00880912 -0.0169178 0.0112483 0.0411505 0.008311 0.0160159 0.00359 -0.0306543 -0.00451711 -0.0186908 0.00980577
internal_weight=4224 3248 976 2192 930 261 52 1056 652 669 280 389 404 323 81 221 53 1048 209 612 53 559 50 509 318 223 56 191 96 95
internal_count=4224 3248 976 2192 930 261 52 1056 652 669 280 389 404 323 81 221 53 1048 209 612 53 559 50 509 318 223 56 191 96 95
is_linear=0
shrinkage=0.05


Tree=29
num_leaves=31
num_cat=0
split_feature=1 2 0 0 2 0 0 2 2 2 0 0 0 1 0 2 2 1 0 2 2 2 0 2 2 0 2 2 2 0
split_gain=452.301 103.376 85.7588 85.6537 45.9721 29.118 28.5567 30.1136 26.3023 25.1878 24.1716 19.104 25.652 25.5158 35.6977 25.3911 47.5432 20.9142 23.0805 20.6441 18.6249 30.1151 29.4799 24.2245 22.1446 16.985 16.8676 19.758 15.8307 15.674
threshold=4.5000000000000009 3883.3750000000005 186.50000000000003 171.50000000000003 1242.9350000000002 364.00000000000006 345.50000000000006 267.54000000000002 550.97500000000014 33717.30000000001 120.50000000000001 21.500000000000004 18.500000000000004 1.5000000000000002 164.50000000000003 325.49000000000007 241.64000000000001 1.5000000000000002 9.5000000000000018 250.76000000000002 533.12000000000012 803.30000000000007 273.50000000000006 658.78000000000009 2219.5950000000007 299.50000000000006 313.53000000000003 91.370000000000019 462.17000000000002 319.50000000000006
decision_type=2 2 2 2 2 2 2 2 2 2 2 2 2 2 2 2 2 2 2 2 2 2 2 2 2 2 2 2 2 2
left_child=3 4 9 11 10 6 20 -8 -9 -3 -2 12 17 15 -15 16 -13 19 -19 -1 26 22 23 -22 -23 -24 27 -5 -17 -28
right_child=1 2 -4 5 -6 -7 7 8 -10 -11 -12 13 -14 14 -16 28 -18 18 -20 -21 21 24 25 -25 -26 -27 29 -29 -30 -31
leaf_value=0.0014488911086862739 0.0044300917949941431 0.042866567611323993 -0.032367631793022156 -0.049831733438703757 0.018040536389986511 -0.026052444440353179 -0.032043569133831905 0.070638124759380638 0.0060397125780582428 0.09253011900517677 -0.032390830914179485 -0.020625480016072593 0.065640742128545593 -0.0002013565229388597 0.062073478351036708 -0.06507718375750951 0.045997019495282856 0.012499042758435915 -0.037729071038109921 0.06919733493224435 -0.052092194941736038 -0.024226370206566358 0.043025611914121187 0.012688953788192184 0.022879340393202649 0.0055243136154280769 -0.026023586863785787 -0.01048875465936084 -0.020660723523890718 -0.059886287694627595
leaf_weight=22 117 469 38 36 738 736 26 26 40 27 72 114 22 559 24 35 35 66 35 23 31 229 52 27 28 72 153 281 47 44
leaf_count=22 117 469 38 36 738 736 26 26 40 27 72 114 22 559 24 35 35 66 35 23 31 229 52 27 28 72 153 281 47 44
internal_value=-8.1747e-11 0.0225002 0.0400239 -0.0118975 0.0124057 -0.0184345 -0.0130691 0.0135331 0.0314876 0.04557 -0.00959693 -4.17814e-05 0.0153091 -0.00321002 0.00236227 -0.0172734 -0.0049759 0.00772489 -0.00490674 0.0360759 -0.0156372 -0.00807378 0.00748806 -0.0219355 -0.0190942 0.0212507 -0.0220971 -0.0149567 -0.039619 -0.0335868
internal_weight=4224 1461 534 2763 927 1781 1045 92 66 496 189 982 168 814 583 231 149 146 101 45 953 439 182 58 257 124 514 317 82 197
internal_count=4224 1461 534 2763 927 1781 1045 92 66 496 189 982 168 814 583 231 149 146 101 45 953 439 182 58 257 124 514 317 82 197
is_linear=0
shrinkage=0.05


Tree=30
num_leaves=31
num_cat=0
split_feature=2 0 0 2 2 0 2 2 1 0 0 1 0 0 0 0 0 0 0 0 2 2 2 0 2 2 0 2 0 0
split_gain=408.341 105.611 75.6426 41.8558 36.6455 29.6826 24.1175 21.7972 30.7438 22.7946 28.2217 21.7566 23.0394 21.2783 23.1486 30.0663 21.2699 17.7892 68.2805 51.7882 29.4356 23.3898 18.598 19.1513 24.4488 17.5398 21.2189 17.1301 53.1522 21.4565
threshold=2102.4400000000001 120.50000000000001 374.50000000000006 6951.0750000000016 580.93000000000018 66.500000000000014 11295.010000000002 783.8850000000001 2.5000000000000004 211.50000000000003 139.00000000000003 8.5000000000000018 2.5000000000000004 303.50000000000006 139.00000000000003 43.500000000000007 53.500000000000007 341.50000000000006 358.50000000000006 318.50000000000006 1738.3950000000002 1186.6850000000002 1488.3950000000002 289.50000000000006 1108.7100000000003 2394.2950000000005 71.500000000000014 1463.2200000000003 164.50000000000003 162.50000000000003
decision_type=2 2 2 2 2 2 2 2 2 2 2 2 2 2 2 2 2 2 2 2 2 2 2 2 2 2 2 2 2 2
left_child=1 -1 3 11 -3 -5 -7 -6 -9 10 -10 13 -13 14 15 -2 -17 19 -19 20 22 -20 23 24 -11 -18 -27 28 -12 -29
right_child=2 4 -4 5 7 6 -8 8 9 17 27 12 -14 -15 -16 16 25 18 21 -21 -22 -23 -24 -25 -26 26 -28 29 -30 -31
leaf_value=0.0043698649372424453 5.1620801086308532e-05 -0.020452108655580031 -0.044592658016416764 0.054919688854562609 0.0056543388962745668 0.040670926462520254 -0.026913962039080537 -0.031334220132520123 -0.029474506730383095 -0.050838718224655501 -0.050290241003036501 0.079745125673387374 0.028240428843833123 0.056162567010947642 -0.013257399433619017 0.080569177865982056 0.062730688452720645 0.086641939878463747 -0.056965525388717658 -0.075723160637749573 0.038158924712075132 0.0056393989034601161 -0.062213936022349772 0.015637418558431228 0.0043072433085054969 -0.026002021846563923 0.029877490217869097 0.081784500859000464 0.045748623329050407 0.015799722288336076
leaf_weight=999 122 1326 36 209 240 33 22 155 33 44 25 23 388 28 77 21 25 20 25 36 27 37 21 43 37 23 65 22 34 28
leaf_count=999 122 1326 36 209 240 33 22 155 33 44 25 23 388 28 77 21 25 20 25 36 27 37 21 43 37 23 65 22 34 28
internal_value=-1.45519e-10 -0.00906617 0.0266573 0.0291331 -0.0153005 0.0463191 0.013637 -0.0070406 -0.012231 -0.00537688 0.0110365 0.023256 0.0311227 0.0142998 0.0107798 0.0180098 0.0343598 -0.0134138 0.00630925 -0.0211892 -0.00977516 -0.0196045 -0.0187008 -0.0113317 -0.0256486 0.0257722 0.0152726 0.0233014 0.00505419 0.044833
internal_weight=4224 3152 1072 1036 2153 264 55 827 587 432 142 772 411 361 333 256 134 290 82 208 172 62 145 124 81 113 88 109 59 50
internal_count=4224 3152 1072 1036 2153 264 55 827 587 432 142 772 411 361 333 256 134 290 82 208 172 62 145 124 81 113 88 109 59 50
is_linear=0
shrinkage=0.05


Tree=31
num_leaves=31
num_cat=0
split_feature=1 2 0 0 0 2 0 2 1 2 2 0 1 2 0 0 2 2 0 0 0 0 0 0 0 0 2 0 0 0
split_gain=370.27 85.0587 70.0767 54.4483 29.6614 29.1718 24.9854 24.9178 21.4821 21.0061 19.7555 18.8396 17.9795 17.8654 27.8275 27.0147 21.2614 42.5448 31.7206 27.2231 27.3141 33.2102 24.0134 22.6533 22.9875 17.7871 24.8693 17.5116 32.4766 16.9061
threshold=4.5000000000000009 2437.0200000000004 127.50000000000001 79.500000000000014 364.00000000000006 598.7600000000001 353.50000000000006 19278.930000000004 15.500000000000002 321.8950000000001 3221.9950000000003 277.50000000000006 1.5000000000000002 376.60500000000008 65.500000000000014 51.500000000000007 497.56500000000005 623.3950000000001 110.50000000000001 53.500000000000007 75.500000000000014 95.500000000000014 89.500000000000014 45.500000000000007 37.500000000000007 333.50000000000006 2219.5950000000007 66.500000000000014 21.500000000000004 28.500000000000004
decision_type=2 2 2 2 2 2 2 2 2 2 2 2 2 2 2 2 2 2 2 2 2 2 2 2 2 2 2 2 2 2
left_child=2 5 10 7 6 -2 12 -3 -5 -8 13 -7 -4 14 15 -1 -15 27 19 23 -21 22 -22 24 29 26 -14 28 -18 -19
right_child=1 3 4 8 -6 11 9 -9 -10 -11 -12 -13 25 16 -16 -17 17 18 -20 20 21 -23 -24 -25 -26 -27 -28 -29 -30 -31
leaf_value=-0.0037156789476036007 -0.047776235143343615 0.035341940908659275 -0.019823901070435523 0.015929193068111299 -0.0237675400774764 0.012164526971668123 -0.016354710147494362 0.07062175867571073 -0.029414389704664552 0.048002247326076032 -0.044956911693919792 -0.012901353565129368 -0.0069870741898510743 0.031395404147250311 -0.027185628681539377 0.052629688152900117 -0.0026133014397187668 0.01181327550001042 0.051528676027475406 -0.0343185699544847 0.0075258561793495639 -0.029428860800606867 0.076571919769048702 0.069779900014400487 -0.031679058571656545 -0.032412004284560682 0.039683854579925543 0.00079681714375813811 -0.084452320028234412 0.056755950053532928
leaf_weight=117 24 556 497 202 736 506 21 55 30 32 22 88 588 84 107 26 22 93 43 64 34 35 20 20 24 64 30 30 27 27
leaf_count=117 24 556 497 202 736 506 21 55 30 32 22 88 588 84 107 26 22 93 43 64 34 35 20 20 24 64 30 30 27 27
internal_value=-8.53271e-11 0.0203579 -0.0107647 0.0306875 -0.0158257 0.00626748 -0.0110813 0.0385177 0.0100658 0.0225023 0.00176369 0.00845106 -0.012591 0.00309338 -0.0079009 0.00652893 0.00834878 0.00393895 0.0112305 0.00576424 -0.00940576 0.00850907 0.0330985 0.0199167 0.0129913 -0.00732002 -0.0047215 -0.0292886 -0.0477083 0.0219254
internal_weight=4224 1461 2763 843 1968 618 1232 611 232 53 795 594 1179 773 250 143 523 439 360 317 153 89 54 164 144 682 618 79 49 120
internal_count=4224 1461 2763 843 1968 618 1232 611 232 53 795 594 1179 773 250 143 523 439 360 317 153 89 54 164 144 682 618 79 49 120
is_linear=0
shrinkage=0.05


Tree=32
num_leaves=31
num_cat=0
split_feature=1 2 0 0 2 0 2 2 0 2 2 0 0 2 2 0 0 0 0 2 2 0 1 2 1 2 2 2 2 2
split_gain=334.169 78.5085 70.7552 63.2443 36.3832 27.2545 21.4223 20.1266 19.9576 17.8293 16.1235 25.1144 24.3807 19.1884 38.922 26.7336 22.898 48.6956 19.7549 27.6831 16.8804 25.309 15.771 37.2845 28.3095 15.7222 13.8127 29.4774 16.3783 12.5857
threshold=4.5000000000000009 3883.3750000000005 186.50000000000003 127.50000000000001 1242.9350000000002 491.50000000000006 193.40000000000003 33717.30000000001 120.50000000000001 3221.9950000000003 376.60500000000008 65.500000000000014 51.500000000000007 497.56500000000005 550.97500000000014 110.50000000000001 95.500000000000014 87.500000000000014 51.500000000000007 615.05000000000007 250.76000000000002 99.500000000000014 2.5000000000000004 964.45500000000015 3.5000000000000004 316.60500000000008 1463.2200000000003 1129.3200000000004 906.30500000000018 775.23000000000013
decision_type=2 2 2 2 2 2 2 2 2 2 2 2 2 2 2 2 2 2 2 2 2 2 2 2 2 2 2 2 2 2
left_child=3 4 7 9 8 6 -5 -3 29 10 11 12 -1 -12 -15 16 17 18 19 -16 21 -13 -20 -24 -25 -22 27 28 -21 -2
right_child=1 2 -4 5 -6 -7 -8 -9 -10 -11 13 20 -14 14 15 -17 -18 -19 22 26 25 -23 23 24 -26 -27 -28 -29 -30 -31
leaf_value=-0.0035298957401870661 -0.024851672608276892 0.037232217780236943 -0.031143645863783986 -0.023733769260920013 0.015555843701308497 -0.027533854915648283 -0.0093660228985650001 0.081626539980923687 -0.029742804086870619 -0.042709066651084204 0.029825633232082639 -0.036674814919630691 0.049998204983197729 -0.043279016166925435 -0.039202606418858407 0.044308503943940869 -0.033431636159484454 0.076604580879211431 -0.045551220178604128 0.026967379187836368 -0.080869161231177197 0.027364236337167249 0.050275377086971121 -0.070932732877277194 0.0047594521443049117 -0.021030773546384732 -0.0090458820847903985 0.068438404053449628 -0.016884402209712612 0.01312884588471868
leaf_weight=117 29 469 38 325 738 357 1286 27 72 22 84 36 26 40 23 46 37 24 30 68 21 27 23 21 30 23 34 32 31 88
leaf_count=117 29 469 38 325 738 357 1286 27 72 22 84 36 26 40 23 46 37 24 30 68 21 27 23 21 30 23 34 32 31 88
internal_value=-4.50889e-11 0.01934 0.0346112 -0.0102265 0.010543 -0.0150344 -0.0122645 0.0396488 -0.00903091 0.00167551 0.00293872 -0.00750585 0.00620249 0.00793134 0.003742 0.00845589 0.00378387 0.00814138 0.00251427 0.0121871 -0.0258263 -0.00922951 -0.0149712 -0.00257392 -0.0264079 -0.04959 0.0193505 0.0267206 0.013236 0.00371487
internal_weight=4224 1461 534 2763 927 1968 1611 496 189 795 773 250 143 523 439 399 353 316 292 188 107 63 104 74 51 44 165 131 99 117
internal_count=4224 1461 534 2763 927 1968 1611 496 189 795 773 250 143 523 439 399 353 316 292 188 107 63 104 74 51 44 165 131 99 117
is_linear=0
shrinkage=0.05


Tree=33
num_leaves=31
num_cat=0
split_feature=2 0 0 0 1 2 0 2 0 0 0 2 0 2 2 0 0 0 2 1 0 2 0 1 0 0 2 2 0 2
split_gain=304.178 77.6407 62.3319 40.6732 50.4436 36.5353 33.9259 28.8102 28.6537 22.3825 23.6875 23.2887 21.4172 37.3789 26.1312 20.5949 19.5237 19.1301 34.475 21.0712 18.1555 34.7442 24.0473 23.3233 17.9732 43.0436 23.6769 17.6153 17.5604 20.816
threshold=2102.4400000000001 211.50000000000003 319.50000000000006 293.50000000000006 3.5000000000000004 4198.8450000000003 186.50000000000003 623.3950000000001 192.50000000000003 563.50000000000011 222.50000000000003 261.80000000000001 78.500000000000014 497.56500000000005 233.37500000000003 134.50000000000003 186.50000000000003 30.500000000000004 658.78000000000009 2.5000000000000004 107.50000000000001 2895.3900000000008 93.500000000000014 5.5000000000000009 127.50000000000001 107.50000000000001 881.10500000000013 286.62000000000006 26.500000000000004 836.54500000000007
decision_type=2 2 2 2 2 2 2 2 2 2 2 2 2 2 2 2 2 2 2 2 2 2 2 2 2 2 2 2 2 2
left_child=1 7 3 4 -2 15 -7 12 17 10 -3 -12 13 14 -1 20 -17 28 -19 24 22 -22 23 -6 25 26 -20 -13 29 -9
right_child=2 9 -4 -5 5 6 -8 8 -10 -11 11 27 -14 -15 -16 16 -18 18 19 -21 21 -23 -24 -25 -26 -27 -28 -29 -30 -31
leaf_value=-0.0091390494690384971 -0.032661106215940941 -0.046366556332661561 -0.02484107054769993 0.096637752652168285 -0.013002873347564179 0.039074124528555867 -0.024443842606111009 -0.020263983433445296 0.054873642126719163 -0.032333665893358343 -0.021392720148652077 0.025606542668844524 -0.015170690109548364 -0.031322839279328628 0.025926819282898802 -0.039500412447699189 0.013108727799521554 0.063510313204356614 -0.068025530301607573 0.002628937915284583 0.092237741251786562 0.004172932533990769 -0.034483260483968825 0.026234313442974406 -0.059536417961120608 0.051928229629993439 0.00012361145019531251 -0.0090951867493582368 0.061955699750355309 0.022560285676771138
leaf_weight=86 37 52 64 20 44 473 22 36 30 170 457 38 368 62 139 29 45 21 26 470 24 21 21 272 25 20 25 972 21 134
leaf_count=86 37 52 64 20 44 473 22 36 30 170 457 38 368 62 139 29 45 21 26 470 24 21 21 272 25 20 25 972 21 134
internal_value=-3.25875e-11 -0.00782485 0.0230074 0.0260454 0.0246164 0.0268449 0.0362511 0.000606829 0.0069242 -0.0151283 -0.0132028 -0.0120272 -0.0071862 0.00305175 0.0125239 0.0166342 -0.00750837 0.00507525 0.000602893 -0.00173113 0.021311 0.0511408 0.0173278 0.0207709 -0.0230773 -0.0102396 -0.0346191 -0.00778958 0.0188201 0.0134916
internal_weight=4224 3152 1072 1008 988 951 495 1463 808 1689 1519 1467 655 287 225 456 74 778 587 566 382 45 337 316 96 71 51 1010 191 170
internal_count=4224 3152 1072 1008 988 951 495 1463 808 1689 1519 1467 655 287 225 456 74 778 587 566 382 45 337 316 96 71 51 1010 191 170
is_linear=0
shrinkage=0.05


Tree=34
num_leaves=31
num_cat=0
split_feature=2 0 0 0 0 0 0 0 2 2 0 0 2 2 1 1 1 0 1 1 1 2 2 0 0 0 2 2 2 2
split_gain=274.812 80.199 49.786 28.1958 29.0651 37.8175 27.8529 26.2145 27.0963 24.59 22.9263 30.9244 20.0718 18.2666 16.5492 16.4921 17.6391 29.2105 22.652 33.483 16.1919 15.5881 20.6171 15.0745 14.7862 26.0511 31.9426 23.3787 23.9277 21.0435
threshold=2312.9250000000006 120.50000000000001 329.50000000000006 8.5000000000000018 283.50000000000006 204.50000000000003 364.00000000000006 345.50000000000006 267.54000000000002 4198.8450000000003 319.50000000000006 316.50000000000006 550.97500000000014 953.63000000000011 1.5000000000000002 15.500000000000002 12.500000000000002 18.500000000000004 10.500000000000002 9.5000000000000018 17.500000000000004 429.52000000000004 301.09500000000008 309.50000000000006 110.50000000000001 97.500000000000014 1036.7200000000003 216.09000000000003 156.15500000000003 114.62500000000001
decision_type=2 2 2 2 2 2 2 2 2 2 2 2 2 2 2 2 2 2 2 2 2 2 2 2 2 2 2 2 2 2
left_child=1 24 3 20 5 9 7 10 -9 15 11 14 -10 -14 23 16 17 -5 19 -19 -2 22 -16 -3 25 27 -27 28 29 -1
right_child=2 6 -4 4 -6 -7 -8 8 12 -11 -12 -13 13 -15 21 -17 -18 18 -20 -21 -22 -23 -24 -25 -26 26 -28 -29 -30 -31
leaf_value=-0.029911463675291645 0.029741860030496378 -0.020146413061315614 -0.027511010675326637 -0.03437878295779228 0.07692978822666667 -0.022583583544711679 -0.02026741151338585 -0.026499053148122939 0.068074372640022862 0.031693819556410659 -0.025018548965454104 0.041142782848328355 -0.020931214661825272 0.044263476133346559 0.0033241800332473497 -0.030145743400568054 0.057759219165081567 0.016457069704179154 -0.015942852780586336 0.074535764985043426 0.060244122853525629 -0.00068631218522275034 -0.03543372430452487 0.017382803456536654 0.026705537768809691 -0.045270717569759922 0.023673893883824348 0.0079063618260116156 -0.045322674377398064 0.035171584950553052
leaf_weight=23 94 346 46 30 23 49 749 26 26 367 218 32 21 22 59 21 23 172 41 29 81 582 82 29 69 56 24 813 44 27
leaf_count=23 94 346 46 30 23 49 749 26 26 367 218 32 21 22 59 21 23 172 41 29 81 582 82 29 69 56 24 813 44 27
internal_value=2.54769e-11 -0.00699106 0.0232653 0.0257768 0.0215854 0.0198464 -0.0124443 -0.00838372 0.0170021 0.0228904 -0.0101728 -0.00730873 0.0333938 0.0124242 -0.00872079 0.0126662 0.0157139 0.0121586 0.0179277 0.0248366 0.0438601 -0.00429996 -0.0192159 -0.0172442 0.00432864 0.00276429 -0.0245873 0.00517678 -0.0184312 0.00523338
internal_weight=4224 3248 976 930 755 732 2192 1443 95 683 1348 1130 69 43 1098 316 295 272 242 201 175 723 141 375 1056 987 80 907 94 50
internal_count=4224 3248 976 930 755 732 2192 1443 95 683 1348 1130 69 43 1098 316 295 272 242 201 175 723 141 375 1056 987 80 907 94 50
is_linear=0
shrinkage=0.05


Tree=35
num_leaves=31
num_cat=0
split_feature=2 0 0 2 0 2 0 0 0 2 0 2 2 1 0 0 0 0 2 2 0 2 1 1 2 0 2 0 0 2
split_gain=248.174 64.055 52.6266 27.3735 43.2479 23.6817 26.2691 19.3609 21.4287 19.9438 17.7636 34.4515 23.5502 17.6452 23.0599 19.8452 22.0718 32.4746 19.1779 22.5538 16.9446 31.3878 18.6172 17.7668 17.0141 27.2237 15.9445 15.8712 38.7559 21.169
